{"training":false,"epochs":1,"file":"2x2/training-logs/2020-08-06-00-10-10.json","hyper-parameters":{"EPOCHS":1,"NETS":1,"TRAINING_OPTIONS":{"iterations":20000,"errorThresh":0.0001,"callbackPeriod":1,"timeout":43200000},"BRAIN_CONFIG":{"hiddenLayers":[100]}},"net":{"sizes":[480,100,12],"layers":[{"0":{},"1":{},"2":{},"3":{},"4":{},"5":{},"6":{},"7":{},"8":{},"9":{},"10":{},"11":{},"12":{},"13":{},"14":{},"15":{},"16":{},"17":{},"18":{},"19":{},"20":{},"21":{},"22":{},"23":{},"24":{},"25":{},"26":{},"27":{},"28":{},"29":{},"30":{},"31":{},"32":{},"33":{},"34":{},"35":{},"36":{},"37":{},"38":{},"39":{},"40":{},"41":{},"42":{},"43":{},"44":{},"45":{},"46":{},"47":{},"48":{},"49":{},"50":{},"51":{},"52":{},"53":{},"54":{},"55":{},"56":{},"57":{},"58":{},"59":{},"60":{},"61":{},"62":{},"63":{},"64":{},"65":{},"66":{},"67":{},"68":{},"69":{},"70":{},"71":{},"72":{},"73":{},"74":{},"75":{},"76":{},"77":{},"78":{},"79":{},"80":{},"81":{},"82":{},"83":{},"84":{},"85":{},"86":{},"87":{},"88":{},"89":{},"90":{},"91":{},"92":{},"93":{},"94":{},"95":{},"96":{},"97":{},"98":{},"99":{},"100":{},"101":{},"102":{},"103":{},"104":{},"105":{},"106":{},"107":{},"108":{},"109":{},"110":{},"111":{},"112":{},"113":{},"114":{},"115":{},"116":{},"117":{},"118":{},"119":{},"120":{},"121":{},"122":{},"123":{},"124":{},"125":{},"126":{},"127":{},"128":{},"129":{},"130":{},"131":{},"132":{},"133":{},"134":{},"135":{},"136":{},"137":{},"138":{},"139":{},"140":{},"141":{},"142":{},"143":{},"144":{},"145":{},"146":{},"147":{},"148":{},"149":{},"150":{},"151":{},"152":{},"153":{},"154":{},"155":{},"156":{},"157":{},"158":{},"159":{},"160":{},"161":{},"162":{},"163":{},"164":{},"165":{},"166":{},"167":{},"168":{},"169":{},"170":{},"171":{},"172":{},"173":{},"174":{},"175":{},"176":{},"177":{},"178":{},"179":{},"180":{},"181":{},"182":{},"183":{},"184":{},"185":{},"186":{},"187":{},"188":{},"189":{},"190":{},"191":{},"192":{},"193":{},"194":{},"195":{},"196":{},"197":{},"198":{},"199":{},"200":{},"201":{},"202":{},"203":{},"204":{},"205":{},"206":{},"207":{},"208":{},"209":{},"210":{},"211":{},"212":{},"213":{},"214":{},"215":{},"216":{},"217":{},"218":{},"219":{},"220":{},"221":{},"222":{},"223":{},"224":{},"225":{},"226":{},"227":{},"228":{},"229":{},"230":{},"231":{},"232":{},"233":{},"234":{},"235":{},"236":{},"237":{},"238":{},"239":{},"240":{},"241":{},"242":{},"243":{},"244":{},"245":{},"246":{},"247":{},"248":{},"249":{},"250":{},"251":{},"252":{},"253":{},"254":{},"255":{},"256":{},"257":{},"258":{},"259":{},"260":{},"261":{},"262":{},"263":{},"264":{},"265":{},"266":{},"267":{},"268":{},"269":{},"270":{},"271":{},"272":{},"273":{},"274":{},"275":{},"276":{},"277":{},"278":{},"279":{},"280":{},"281":{},"282":{},"283":{},"284":{},"285":{},"286":{},"287":{},"288":{},"289":{},"290":{},"291":{},"292":{},"293":{},"294":{},"295":{},"296":{},"297":{},"298":{},"299":{},"300":{},"301":{},"302":{},"303":{},"304":{},"305":{},"306":{},"307":{},"308":{},"309":{},"310":{},"311":{},"312":{},"313":{},"314":{},"315":{},"316":{},"317":{},"318":{},"319":{},"320":{},"321":{},"322":{},"323":{},"324":{},"325":{},"326":{},"327":{},"328":{},"329":{},"330":{},"331":{},"332":{},"333":{},"334":{},"335":{},"336":{},"337":{},"338":{},"339":{},"340":{},"341":{},"342":{},"343":{},"344":{},"345":{},"346":{},"347":{},"348":{},"349":{},"350":{},"351":{},"352":{},"353":{},"354":{},"355":{},"356":{},"357":{},"358":{},"359":{},"360":{},"361":{},"362":{},"363":{},"364":{},"365":{},"366":{},"367":{},"368":{},"369":{},"370":{},"371":{},"372":{},"373":{},"374":{},"375":{},"376":{},"377":{},"378":{},"379":{},"380":{},"381":{},"382":{},"383":{},"384":{},"385":{},"386":{},"387":{},"388":{},"389":{},"390":{},"391":{},"392":{},"393":{},"394":{},"395":{},"396":{},"397":{},"398":{},"399":{},"400":{},"401":{},"402":{},"403":{},"404":{},"405":{},"406":{},"407":{},"408":{},"409":{},"410":{},"411":{},"412":{},"413":{},"414":{},"415":{},"416":{},"417":{},"418":{},"419":{},"420":{},"421":{},"422":{},"423":{},"424":{},"425":{},"426":{},"427":{},"428":{},"429":{},"430":{},"431":{},"432":{},"433":{},"434":{},"435":{},"436":{},"437":{},"438":{},"439":{},"440":{},"441":{},"442":{},"443":{},"444":{},"445":{},"446":{},"447":{},"448":{},"449":{},"450":{},"451":{},"452":{},"453":{},"454":{},"455":{},"456":{},"457":{},"458":{},"459":{},"460":{},"461":{},"462":{},"463":{},"464":{},"465":{},"466":{},"467":{},"468":{},"469":{},"470":{},"471":{},"472":{},"473":{},"474":{},"475":{},"476":{},"477":{},"478":{},"479":{}},{"0":{"bias":-0.4134998023509979,"weights":{"0":-0.006935087963938713,"1":0.8717601895332336,"2":0.6747801303863525,"3":0.08502862602472305,"4":-1.0257893800735474,"5":-0.6814497113227844,"6":-0.32893964648246765,"7":0.07977344840765,"8":-0.18436194956302643,"9":-0.034557972103357315,"10":-0.04800434038043022,"11":-0.045186690986156464,"12":-0.05900409817695618,"13":0.03726276010274887,"14":-0.022174514830112457,"15":-0.3979535698890686,"16":-0.008538526482880116,"17":-0.06276601552963257,"18":-0.0916610062122345,"19":0.177196204662323,"20":-0.01537939254194498,"21":0.13237039744853973,"22":-0.07050581276416779,"23":-0.030766896903514862,"24":0.11757446825504303,"25":0.013788801617920399,"26":0.1286287158727646,"27":-0.3042847216129303,"28":-0.7038072347640991,"29":0.5664535164833069,"30":-0.17313557863235474,"31":-0.1877739131450653,"32":0.013137423433363438,"33":0.1469903290271759,"34":0.2186800092458725,"35":-0.5841467380523682,"36":-0.0008983984007500112,"37":0.8621585965156555,"38":-1.4779342412948608,"39":0.15214797854423523,"40":0.043591707944869995,"41":0.04914655163884163,"42":0.1156873106956482,"43":-0.12516090273857117,"44":0.17010608315467834,"45":-0.04325777664780617,"46":0.10197202116250992,"47":-0.10292588919401169,"48":0.15490557253360748,"49":0.1422731876373291,"50":0.8298013210296631,"51":-1.4715882539749146,"52":0.27091148495674133,"53":-0.0364147312939167,"54":-0.5557690858840942,"55":0.5622500777244568,"56":0.1065981462597847,"57":0.946682870388031,"58":-0.37112608551979065,"59":-0.7457582354545593,"60":0.04506929591298103,"61":-0.02237347885966301,"62":-0.9168707728385925,"63":0.45521873235702515,"64":-1.0358901023864746,"65":0.6938679814338684,"66":0.5429445505142212,"67":0.13939574360847473,"68":0.11264461278915405,"69":0.10067395120859146,"70":0.027645854279398918,"71":0.07796745002269745,"72":-0.1611279845237732,"73":0.031939614564180374,"74":-0.08515964448451996,"75":-0.13958139717578888,"76":0.07563606649637222,"77":-0.05375312268733978,"78":0.19554972648620605,"79":-0.04855619743466377,"80":0.06131759658455849,"81":-0.13037176430225372,"82":0.19372141361236572,"83":-0.25442883372306824,"84":-0.0982462465763092,"85":0.790641725063324,"86":0.08260609209537506,"87":-0.483756959438324,"88":0.5801150798797607,"89":-0.8613438606262207,"90":-0.6794633269309998,"91":-0.09911639243364334,"92":0.06892044842243195,"93":-0.004905292298644781,"94":-0.04815603792667389,"95":0.11409568041563034,"96":0.04397173970937729,"97":0.052724312990903854,"98":0.032420236617326736,"99":-0.41003918647766113,"100":-0.11892548948526382,"101":-1.010353684425354,"102":-0.2738967835903168,"103":0.4701883792877197,"104":0.26780036091804504,"105":-0.3823429346084595,"106":0.44889068603515625,"107":0.19362427294254303,"108":0.40679556131362915,"109":-0.7011249661445618,"110":-0.696899950504303,"111":0.04284094274044037,"112":0.21234603226184845,"113":0.40373530983924866,"114":-0.4876566529273987,"115":-0.8586074113845825,"116":0.27771133184432983,"117":0.4188348054885864,"118":-0.5769750475883484,"119":0.6027025580406189,"120":-0.009576424024999142,"121":-0.15313135087490082,"122":0.11018939316272736,"123":-0.45496493577957153,"124":0.4999321401119232,"125":-0.6223145127296448,"126":0.1735931932926178,"127":-0.08790455013513565,"128":0.1805220991373062,"129":-0.07811694592237473,"130":-0.02743721753358841,"131":0.09916675835847855,"132":0.020740287378430367,"133":-0.08360045403242111,"134":0.17863479256629944,"135":-0.2280144840478897,"136":-0.18426597118377686,"137":-2.627110004425049,"138":-0.11139918863773346,"139":0.4986295998096466,"140":0.4587312340736389,"141":0.7491282224655151,"142":0.9535698890686035,"143":-0.10078295320272446,"144":-0.02228795737028122,"145":0.023161018267273903,"146":0.19296355545520782,"147":0.048439547419548035,"148":0.0174773670732975,"149":-0.0659605860710144,"150":0.09155204147100449,"151":-0.2917599081993103,"152":0.06989508867263794,"153":1.2173784971237183,"154":0.2141534388065338,"155":-0.29594743251800537,"156":-0.2778358459472656,"157":0.0803147479891777,"158":-1.209254264831543,"159":0.12546959519386292,"160":0.1345604658126831,"161":-0.09323491156101227,"162":0.18607789278030396,"163":-0.09505262970924377,"164":-0.09436064213514328,"165":0.03753574192523956,"166":0.12033658474683762,"167":-0.39928150177001953,"168":0.020197611302137375,"169":-0.3895459473133087,"170":-0.21673369407653809,"171":-1.1981022357940674,"172":0.6428813934326172,"173":0.44099363684654236,"174":-0.08851875364780426,"175":0.43867728114128113,"176":-0.6068596243858337,"177":0.2046685665845871,"178":0.6485443115234375,"179":-0.7640781998634338,"180":-0.09211758524179459,"181":-0.05231819301843643,"182":-0.3456006944179535,"183":-0.07591188699007034,"184":0.1715489625930786,"185":-0.11497761309146881,"186":0.6921215653419495,"187":-0.15936315059661865,"188":0.18150043487548828,"189":-0.0982280895113945,"190":-0.1409270018339157,"191":-0.1510349065065384,"192":0.1238880604505539,"193":0.0037661229725927114,"194":0.03228973597288132,"195":-0.35883355140686035,"196":0.16823045909404755,"197":0.23938310146331787,"198":-0.12330654263496399,"199":-0.3187572956085205,"200":0.1916288584470749,"201":0.5509812831878662,"202":-0.34280604124069214,"203":0.054872967302799225,"204":0.02154850773513317,"205":0.07889283448457718,"206":-0.14824499189853668,"207":-0.19292332231998444,"208":-0.0367182120680809,"209":-0.1150575503706932,"210":0.18059147894382477,"211":-0.12728624045848846,"212":-0.15316618978977203,"213":-0.1320798546075821,"214":-0.1881803423166275,"215":0.16611923277378082,"216":-0.05541455000638962,"217":0.041143473237752914,"218":-0.019939294084906578,"219":-0.3294095993041992,"220":0.09910061210393906,"221":1.1231428384780884,"222":0.32470616698265076,"223":-0.4645465016365051,"224":-1.415812611579895,"225":0.37104254961013794,"226":-0.1718156933784485,"227":0.05326148867607117,"228":-0.06592421978712082,"229":-0.15629754960536957,"230":-0.5444859862327576,"231":0.5365386009216309,"232":-0.6915110945701599,"233":0.39133018255233765,"234":0.19804200530052185,"235":-0.2411506623029709,"236":0.17391163110733032,"237":-0.5439298748970032,"238":0.3803488314151764,"239":-0.1831996589899063,"240":0.18182988464832306,"241":0.12358205020427704,"242":0.022378716617822647,"243":-0.023782482370734215,"244":-0.13033142685890198,"245":0.058173082768917084,"246":-0.1156744584441185,"247":-0.2307303100824356,"248":-0.14359687268733978,"249":0.07033070921897888,"250":0.0010513340821489692,"251":1.1639918088912964,"252":-1.3932665586471558,"253":0.05072175711393356,"254":-0.025079112499952316,"255":-0.16585730016231537,"256":0.043703384697437286,"257":0.13847433030605316,"258":0.18731220066547394,"259":0.16293539106845856,"260":0.058151040226221085,"261":0.03283227980136871,"262":-0.17019109427928925,"263":-0.31994473934173584,"264":-0.004861633758991957,"265":0.5033582448959351,"266":0.1480940729379654,"267":-1.1692416667938232,"268":0.8171789646148682,"269":-0.25266575813293457,"270":0.19464373588562012,"271":-0.0575345978140831,"272":-0.10492697358131409,"273":-0.6456176042556763,"274":-0.22555837035179138,"275":0.8650062680244446,"276":0.6338809728622437,"277":-0.6914723515510559,"278":-0.015070007182657719,"279":0.07346213608980179,"280":-0.186501145362854,"281":-0.16790924966335297,"282":-0.12574853003025055,"283":-0.0872841626405716,"284":-0.1225171610713005,"285":-0.16306908428668976,"286":0.1947561651468277,"287":-0.08403649181127548,"288":-0.5420834422111511,"289":0.011044949293136597,"290":-0.352558434009552,"291":-0.029689069837331772,"292":0.19123591482639313,"293":0.21940098702907562,"294":1.2000937461853027,"295":-0.32244783639907837,"296":-0.17410895228385925,"297":-0.9418647885322571,"298":-1.2895920276641846,"299":1.2514828443527222,"300":0.04530797153711319,"301":0.029992474243044853,"302":-0.14776234328746796,"303":0.04400425776839256,"304":0.021380815654993057,"305":-0.009446553885936737,"306":0.18578991293907166,"307":-0.2752304673194885,"308":0.06530605256557465,"309":0.11157797276973724,"310":0.4246796667575836,"311":-0.4110550880432129,"312":-0.4508775472640991,"313":-0.025427643209695816,"314":-0.1563095599412918,"315":0.006404867395758629,"316":0.09258990734815598,"317":-0.04973600432276726,"318":-0.14912696182727814,"319":-0.1743413805961609,"320":0.022639643400907516,"321":0.1693117767572403,"322":0.17886975407600403,"323":-0.20085282623767853,"324":0.16417348384857178,"325":0.202495738863945,"326":-0.7579823732376099,"327":-0.5058789253234863,"328":0.22997774183750153,"329":-0.19101019203662872,"330":0.41994166374206543,"331":-0.10384649783372879,"332":0.09441263973712921,"333":0.0681585893034935,"334":0.17545294761657715,"335":0.1001930981874466,"336":-0.17865394055843353,"337":-0.16183839738368988,"338":-0.15086312592029572,"339":-0.3372092843055725,"340":-0.13364161550998688,"341":-0.7283797264099121,"342":0.11170917749404907,"343":0.7043198347091675,"344":0.5478560924530029,"345":-0.04567427560687065,"346":-0.5039659142494202,"347":0.16980858147144318,"348":-0.6092942357063293,"349":0.7372284531593323,"350":-0.15236805379390717,"351":-0.20192505419254303,"352":-0.6875544786453247,"353":0.29757562279701233,"354":-0.06577260792255402,"355":0.039874594658613205,"356":-0.17213593423366547,"357":0.4496161937713623,"358":-0.2361574023962021,"359":-0.19964390993118286,"360":0.1341182142496109,"361":-0.1301426738500595,"362":-0.0352795347571373,"363":-0.15040281414985657,"364":0.04074544459581375,"365":-0.09331570565700531,"366":0.07430031150579453,"367":-0.2569262385368347,"368":0.13845014572143555,"369":-1.4405235052108765,"370":-0.6549529433250427,"371":0.46090996265411377,"372":1.0038541555404663,"373":-0.7652695775032043,"374":1.081642508506775,"375":-0.09666748344898224,"376":0.12332630157470703,"377":-0.4679211676120758,"378":0.3532377779483795,"379":0.20720775425434113,"380":0.03782084956765175,"381":0.24570287764072418,"382":-0.618304967880249,"383":-0.016967955976724625,"384":0.005831271409988403,"385":-0.0708659365773201,"386":0.0016630322206765413,"387":0.04313265159726143,"388":-0.10615314543247223,"389":-0.1521681845188141,"390":0.07537338882684708,"391":-0.4243634343147278,"392":-0.09386143833398819,"393":0.7287756204605103,"394":-0.344393789768219,"395":-0.7249977588653564,"396":0.25657403469085693,"397":-0.020735958591103554,"398":0.19041013717651367,"399":0.19611532986164093,"400":0.10420849919319153,"401":-0.0972667932510376,"402":-0.09953638166189194,"403":-0.16466212272644043,"404":0.12670943140983582,"405":-0.053779907524585724,"406":0.11692897230386734,"407":-0.3940995931625366,"408":-0.4136999845504761,"409":0.445815771818161,"410":1.121569275856018,"411":-0.014006182551383972,"412":-0.7326571941375732,"413":-0.7953898310661316,"414":-0.7788752317428589,"415":0.029416745528578758,"416":-0.7737583518028259,"417":0.25750118494033813,"418":0.5073426961898804,"419":0.3078518509864807,"420":0.14688125252723694,"421":-0.030927326530218124,"422":-0.18616905808448792,"423":0.17171414196491241,"424":0.06929675489664078,"425":0.13805826008319855,"426":-0.18628251552581787,"427":-0.12186438590288162,"428":0.17999574542045593,"429":1.0065025091171265,"430":0.28430435061454773,"431":-0.9492278099060059,"432":-0.08745987713336945,"433":-0.6114625930786133,"434":-0.3925023376941681,"435":-0.13160012662410736,"436":-0.1928805708885193,"437":-0.6529110074043274,"438":-0.4051412343978882,"439":0.28926193714141846,"440":0.5473715662956238,"441":0.30065998435020447,"442":-0.09433701634407043,"443":0.011028021574020386,"444":-0.10575699061155319,"445":-0.02948523312807083,"446":-0.17668278515338898,"447":0.1634950488805771,"448":-0.09165240824222565,"449":-0.11577960848808289,"450":0.025862926617264748,"451":-0.20643778145313263,"452":-0.01920674368739128,"453":0.10674530267715454,"454":-0.11108934879302979,"455":0.07098361849784851,"456":0.18002741038799286,"457":-0.18040694296360016,"458":0.0698615238070488,"459":-0.12161799520254135,"460":0.03886718675494194,"461":0.41302716732025146,"462":0.09677188843488693,"463":0.23648656904697418,"464":-1.080397367477417,"465":0.06588102132081985,"466":-0.2195485234260559,"467":-0.17978456616401672,"468":-0.11540202796459198,"469":-0.4948771595954895,"470":-0.2330559939146042,"471":0.2124260663986206,"472":-0.05435282364487648,"473":0.33509501814842224,"474":0.019816556945443153,"475":0.5291305780410767,"476":-0.5776828527450562,"477":0.017050841823220253,"478":0.41070982813835144,"479":-0.7245211601257324}},"1":{"bias":-0.23543769121170044,"weights":{"0":0.19852326810359955,"1":-1.595221757888794,"2":0.12160670757293701,"3":0.34591957926750183,"4":0.20978450775146484,"5":0.4847727119922638,"6":0.5871223211288452,"7":-0.1226494088768959,"8":-0.11344575881958008,"9":-0.18692922592163086,"10":-0.023785624653100967,"11":-0.08295096457004547,"12":-0.14890998601913452,"13":0.019133372232317924,"14":0.08899765461683273,"15":-0.12764661014080048,"16":-0.14637240767478943,"17":0.1939401775598526,"18":-0.003691976424306631,"19":0.15157534182071686,"20":0.008191542699933052,"21":-0.18093112111091614,"22":-0.1674947887659073,"23":-0.24839220941066742,"24":-0.1743829995393753,"25":1.0297311544418335,"26":-0.3699039816856384,"27":-1.069905161857605,"28":-0.27056261897087097,"29":0.4152388572692871,"30":0.09343887120485306,"31":-0.19014672935009003,"32":-0.1399306356906891,"33":-1.058088779449463,"34":-0.4208589792251587,"35":0.42510661482810974,"36":1.1955902576446533,"37":-0.5614878535270691,"38":0.2178461104631424,"39":-0.13774524629116058,"40":0.01544690690934658,"41":-0.11996275931596756,"42":-0.1517593115568161,"43":0.02617400884628296,"44":0.1215580552816391,"45":0.18296650052070618,"46":0.0071541182696819305,"47":-0.14365829527378082,"48":-0.4817388653755188,"49":0.09516420215368271,"50":0.15554764866828918,"51":0.2700469195842743,"52":-0.7029883861541748,"53":0.4181838929653168,"54":0.23806540668010712,"55":0.24980102479457855,"56":0.3183916509151459,"57":-0.2599530518054962,"58":-0.7020317912101746,"59":0.44987574219703674,"60":0.09311677515506744,"61":-0.9956527352333069,"62":0.781019389629364,"63":0.020374028012156487,"64":-0.12278427928686142,"65":-0.08402913063764572,"66":0.12515650689601898,"67":0.09983407706022263,"68":0.09856875985860825,"69":0.10097335278987885,"70":-0.012749575078487396,"71":0.14534389972686768,"72":0.1623775213956833,"73":0.054528504610061646,"74":0.13240449130535126,"75":-0.0478488989174366,"76":0.08522504568099976,"77":0.00040182951488532126,"78":0.1514696478843689,"79":0.0834648534655571,"80":-0.14074456691741943,"81":-0.000003531672973622335,"82":0.027035750448703766,"83":0.014971178025007248,"84":0.14551328122615814,"85":0.2913155257701874,"86":-0.22582724690437317,"87":-0.4207698404788971,"88":0.07044918835163116,"89":0.31258624792099,"90":-0.38371288776397705,"91":0.13471664488315582,"92":-0.09197304397821426,"93":0.025664234533905983,"94":0.11878833919763565,"95":0.16219724714756012,"96":0.09869883209466934,"97":-0.07359781116247177,"98":0.13276717066764832,"99":-0.21214880049228668,"100":-0.02470303699374199,"101":-0.14557474851608276,"102":-0.5211024284362793,"103":-0.3571127653121948,"104":0.6059007048606873,"105":-0.2712320387363434,"106":0.22136765718460083,"107":0.12412168085575104,"108":0.2659602165222168,"109":-0.5018391609191895,"110":0.6908583045005798,"111":-0.6171541213989258,"112":-0.015699690207839012,"113":-0.15200911462306976,"114":-0.30879274010658264,"115":0.09643390029668808,"116":0.2546621263027191,"117":-0.08004437386989594,"118":-0.28960391879081726,"119":-0.09582921117544174,"120":-0.01604360342025757,"121":0.762840747833252,"122":-0.3916761577129364,"123":-0.36986681818962097,"124":0.42682549357414246,"125":-0.3992340862751007,"126":-0.04334202781319618,"127":0.09925461560487747,"128":0.186488538980484,"129":-0.16110247373580933,"130":0.10445404797792435,"131":-0.010263555683195591,"132":0.05580110847949982,"133":0.1800524741411209,"134":0.15819595754146576,"135":-0.06507039070129395,"136":-0.000778514367993921,"137":0.19887129962444305,"138":0.4436485767364502,"139":0.5275081396102905,"140":-1.5364608764648438,"141":0.19538158178329468,"142":-0.19400209188461304,"143":-0.19101493060588837,"144":0.1673618108034134,"145":0.1671827733516693,"146":0.16624011099338531,"147":-0.13198618590831757,"148":0.1834585815668106,"149":-0.16257359087467194,"150":-0.13789096474647522,"151":-0.30222123861312866,"152":-0.04895809292793274,"153":-0.9756258726119995,"154":-0.03594342991709709,"155":0.571138858795166,"156":0.6176461577415466,"157":-0.38060232996940613,"158":0.3507900834083557,"159":-0.10364413261413574,"160":0.17362123727798462,"161":0.17002516984939575,"162":0.15947175025939941,"163":-0.0009433527011424303,"164":-0.024038510397076607,"165":-0.1253504753112793,"166":0.14776241779327393,"167":-0.20872430503368378,"168":-0.0862775519490242,"169":0.5823541879653931,"170":-0.5966465473175049,"171":0.16097486019134521,"172":-0.057866666465997696,"173":0.006735372357070446,"174":0.4148757755756378,"175":0.8008546829223633,"176":-0.1600426286458969,"177":-0.28049054741859436,"178":0.16056939959526062,"179":-0.5097761154174805,"180":-0.033022020012140274,"181":0.4826832413673401,"182":0.36828839778900146,"183":-0.6183347105979919,"184":-0.32397523522377014,"185":0.5063521265983582,"186":-0.46070438623428345,"187":-0.1259247362613678,"188":-0.18363037705421448,"189":-0.11665501445531845,"190":-0.05462825670838356,"191":0.13777302205562592,"192":-0.1535235047340393,"193":0.17266923189163208,"194":0.080097496509552,"195":-0.14951051771640778,"196":-0.04639790579676628,"197":-0.4231690466403961,"198":-0.46225684881210327,"199":0.3728945553302765,"200":-0.23906081914901733,"201":0.04713916778564453,"202":0.22429543733596802,"203":0.06905912607908249,"204":-0.13682208955287933,"205":0.1170688271522522,"206":0.09780680388212204,"207":0.1889464110136032,"208":0.1866479218006134,"209":0.09928753972053528,"210":0.16554230451583862,"211":-0.1395713835954666,"212":-0.0011455531930550933,"213":0.0786561667919159,"214":0.07452341914176941,"215":-0.11692513525485992,"216":-0.1393587738275528,"217":-0.07973988354206085,"218":0.1778591424226761,"219":-0.19739191234111786,"220":0.19158490002155304,"221":0.14237429201602936,"222":0.3139355480670929,"223":-0.14117193222045898,"224":0.3466213047504425,"225":-0.6337885856628418,"226":-0.09186060726642609,"227":0.0958021953701973,"228":-0.22752992808818817,"229":-0.7363236546516418,"230":0.22068631649017334,"231":0.29027965664863586,"232":0.3464900851249695,"233":-0.26161301136016846,"234":-0.8295497894287109,"235":0.3025362193584442,"236":-0.4418860077857971,"237":0.1428539901971817,"238":0.19319984316825867,"239":0.2285573035478592,"240":0.1535342037677765,"241":0.1842976212501526,"242":-0.027534032240509987,"243":0.08491679280996323,"244":0.0711154192686081,"245":-0.11938728392124176,"246":-0.1319599747657776,"247":-0.26923322677612305,"248":-0.19480708241462708,"249":-0.26977530121803284,"250":-0.43049779534339905,"251":0.3435189723968506,"252":1.6580519676208496,"253":-0.2282049059867859,"254":-1.3654757738113403,"255":-0.09182551503181458,"256":0.09799984097480774,"257":-0.01787850633263588,"258":-0.09033376723527908,"259":0.03142321854829788,"260":-0.047117628157138824,"261":-0.023591207340359688,"262":-0.08814423531293869,"263":-0.36845725774765015,"264":-0.11308825016021729,"265":-0.772363543510437,"266":0.4788569509983063,"267":0.3369234502315521,"268":-0.6806507706642151,"269":-0.6961174011230469,"270":0.7461858987808228,"271":0.06179448589682579,"272":0.03245915099978447,"273":1.4114322662353516,"274":0.3983822464942932,"275":-0.9403825998306274,"276":-1.4977962970733643,"277":0.713866651058197,"278":-0.38710376620292664,"279":-0.13740068674087524,"280":-0.13259437680244446,"281":-0.1398179531097412,"282":0.058834679424762726,"283":0.1956435889005661,"284":0.005428307689726353,"285":-0.13156475126743317,"286":-0.11953584849834442,"287":-0.1772172898054123,"288":0.30574339628219604,"289":0.7839041948318481,"290":-1.27232027053833,"291":-0.4405210316181183,"292":0.5398297309875488,"293":-0.47731301188468933,"294":-0.7699645757675171,"295":-0.6029185056686401,"296":-0.26021304726600647,"297":0.8779973387718201,"298":0.6531745791435242,"299":0.32933521270751953,"300":0.13054007291793823,"301":-0.01810893602669239,"302":-0.08923426270484924,"303":0.09176404774188995,"304":-0.1453893780708313,"305":0.17196466028690338,"306":-0.0622330866754055,"307":-0.17868278920650482,"308":0.15921324491500854,"309":-0.5161715149879456,"310":-0.25610917806625366,"311":0.44314512610435486,"312":0.7522336840629578,"313":-0.46418604254722595,"314":0.030818091705441475,"315":0.09904880821704865,"316":-0.11448369920253754,"317":0.0346197672188282,"318":-0.03875943273305893,"319":-0.1080390065908432,"320":-0.040794551372528076,"321":0.1178184300661087,"322":0.1390802562236786,"323":-0.22563360631465912,"324":-0.02486605755984783,"325":1.344661831855774,"326":-0.5222234129905701,"327":-0.41234302520751953,"328":-0.08311262726783752,"329":-0.9341207146644592,"330":-0.09191194921731949,"331":0.030420148745179176,"332":0.17040830850601196,"333":0.11984670907258987,"334":-0.08794610947370529,"335":-0.16848374903202057,"336":0.03516606241464615,"337":-0.15156175196170807,"338":-0.12733608484268188,"339":-0.24226270616054535,"340":-0.16452081501483917,"341":-0.8181996941566467,"342":0.7147461175918579,"343":-0.31579330563545227,"344":-0.43167176842689514,"345":0.8221874237060547,"346":-0.14180351793766022,"347":0.1126098483800888,"348":-0.23607568442821503,"349":0.1321023404598236,"350":-0.2908652722835541,"351":0.6854557991027832,"352":-0.5320144295692444,"353":0.05382039025425911,"354":0.849765419960022,"355":-0.5906762480735779,"356":-0.1594269871711731,"357":-0.0580659955739975,"358":-0.42144590616226196,"359":0.16893121600151062,"360":0.14479035139083862,"361":-0.15398508310317993,"362":-0.03636118769645691,"363":0.04558243229985237,"364":0.033583708107471466,"365":-0.19341497123241425,"366":0.08438249677419662,"367":-0.27553248405456543,"368":0.09534221887588501,"369":-0.317175030708313,"370":-0.4423731565475464,"371":-0.30753740668296814,"372":0.46557945013046265,"373":0.5527329444885254,"374":0.13222387433052063,"375":-0.13538464903831482,"376":-0.015440035611391068,"377":-1.6325520277023315,"378":-0.05494701862335205,"379":-0.2760429382324219,"380":0.9828608632087708,"381":-0.11436362564563751,"382":0.6304639577865601,"383":0.11571571975946426,"384":-0.04628334194421768,"385":0.03132110834121704,"386":0.11105037480592728,"387":0.06656713038682938,"388":0.13527606427669525,"389":0.026893755421042442,"390":-0.062448639422655106,"391":-0.2328103631734848,"392":-0.1888871192932129,"393":1.3166981935501099,"394":0.02376239188015461,"395":0.19949083030223846,"396":-0.6271577477455139,"397":-0.4638867676258087,"398":-0.2567763030529022,"399":0.05077968165278435,"400":-0.1554122269153595,"401":-0.060587458312511444,"402":-0.1296859085559845,"403":-0.034512847661972046,"404":-0.13198569416999817,"405":-0.04121202602982521,"406":0.12037074565887451,"407":-0.28285086154937744,"408":0.32785722613334656,"409":0.01592080667614937,"410":0.06910242885351181,"411":-0.2954855263233185,"412":0.7426652908325195,"413":-0.7257510423660278,"414":-0.10780588537454605,"415":-0.03831595182418823,"416":0.5102198123931885,"417":-0.5605525374412537,"418":-0.03594851866364479,"419":-0.2829107344150543,"420":-0.07724330574274063,"421":0.10308937728404999,"422":0.10475622862577438,"423":0.18795137107372284,"424":0.1310604065656662,"425":0.10402526706457138,"426":-0.011511974036693573,"427":-0.2728017568588257,"428":-0.1471845507621765,"429":-0.20724807679653168,"430":0.43366336822509766,"431":-0.07411295175552368,"432":-0.05732332915067673,"433":-0.3264087438583374,"434":0.08736015856266022,"435":0.06217144429683685,"436":-0.09984217584133148,"437":1.1536260843276978,"438":0.25310617685317993,"439":0.39151662588119507,"440":-0.9830260276794434,"441":0.008975788950920105,"442":-0.7650597095489502,"443":-0.03014061599969864,"444":0.18936167657375336,"445":-0.19576045870780945,"446":-0.05252696946263313,"447":0.042501676827669144,"448":-0.15435972809791565,"449":-0.01251015905290842,"450":-0.06635826826095581,"451":-0.018378058448433876,"452":0.06946239620447159,"453":0.0444176122546196,"454":-0.037470944225788116,"455":-0.15681801736354828,"456":-0.02530474215745926,"457":0.1381349414587021,"458":-0.11807916313409805,"459":-0.038097675889730453,"460":0.08748585730791092,"461":1.0522255897521973,"462":-0.44168800115585327,"463":-0.22671625018119812,"464":-1.214830756187439,"465":0.04190732538700104,"466":0.14080993831157684,"467":-0.06915614753961563,"468":0.39982926845550537,"469":0.19146180152893066,"470":0.18332257866859436,"471":-0.376228392124176,"472":-0.5598231554031372,"473":0.19418834149837494,"474":0.052601978182792664,"475":0.42551136016845703,"476":-0.22138677537441254,"477":-0.3816136121749878,"478":-0.08570890128612518,"479":-0.003921767231076956}},"2":{"bias":-0.6283799409866333,"weights":{"0":-0.02699962444603443,"1":-0.1171877533197403,"2":-0.5258201360702515,"3":-0.9175316095352173,"4":-0.2634413540363312,"5":0.42571964859962463,"6":0.7114302515983582,"7":-0.10899881273508072,"8":0.09605278074741364,"9":-0.06271787732839584,"10":-0.14491096138954163,"11":0.11913927644491196,"12":-0.17991572618484497,"13":-0.10332627594470978,"14":0.1715870350599289,"15":-0.8024811148643494,"16":-0.013879508711397648,"17":-0.06289481371641159,"18":0.17536358535289764,"19":0.04960962384939194,"20":0.1026267409324646,"21":-0.03008231148123741,"22":0.05551762878894806,"23":-0.5804899334907532,"24":-0.09553344547748566,"25":-0.03284497559070587,"26":0.85299152135849,"27":0.17461220920085907,"28":-0.8747072815895081,"29":-0.7409672141075134,"30":0.04994635283946991,"31":-0.15522122383117676,"32":-0.09281005710363388,"33":1.0333327054977417,"34":-0.5060508847236633,"35":0.8053069710731506,"36":-0.0011590826325118542,"37":-0.47350749373435974,"38":-1.3029613494873047,"39":0.13885347545146942,"40":-0.17911945283412933,"41":0.1879705935716629,"42":-0.11333800852298737,"43":0.07154638320207596,"44":0.015658428892493248,"45":-0.02999161183834076,"46":-0.14977218210697174,"47":-0.4139316976070404,"48":-0.7803886532783508,"49":0.13657309114933014,"50":-0.29810798168182373,"51":-1.3302435874938965,"52":0.6779245734214783,"53":0.78635174036026,"54":0.987334668636322,"55":-0.6406445503234863,"56":-0.9905378818511963,"57":-0.5495622158050537,"58":0.4713236689567566,"59":0.6649282574653625,"60":0.19840750098228455,"61":-0.797331690788269,"62":-0.10818149894475937,"63":-0.014394942671060562,"64":-0.4555257558822632,"65":-0.44643622636795044,"66":0.7981685996055603,"67":0.05861072242259979,"68":-0.10377933084964752,"69":0.01921267807483673,"70":-0.09844141453504562,"71":0.14024315774440765,"72":0.14721423387527466,"73":0.1391860842704773,"74":0.05489581450819969,"75":-0.4764832556247711,"76":0.06808255612850189,"77":-0.1765929013490677,"78":-0.031776197254657745,"79":-0.08642219752073288,"80":0.0477529875934124,"81":-0.17176419496536255,"82":0.13242202997207642,"83":-0.4723183810710907,"84":0.12490758299827576,"85":0.4853624403476715,"86":0.09737100452184677,"87":-0.03585590049624443,"88":-0.020203322172164917,"89":-0.35879865288734436,"90":-0.5192598700523376,"91":-0.17003190517425537,"92":0.16068503260612488,"93":-0.1377555876970291,"94":0.08021704852581024,"95":-0.0004934826283715665,"96":0.1483573019504547,"97":-0.016728028655052185,"98":0.04579482972621918,"99":-0.7560706734657288,"100":-0.03854532912373543,"101":-0.46954068541526794,"102":-0.4791869819164276,"103":0.4466587007045746,"104":0.5542234778404236,"105":0.0002901604166254401,"106":-0.32582566142082214,"107":-0.11968297511339188,"108":-0.4253385365009308,"109":-0.6439290642738342,"110":-0.1109536811709404,"111":-0.34958210587501526,"112":-0.23925158381462097,"113":0.8684322237968445,"114":-0.09256762266159058,"115":-0.22819572687149048,"116":-0.31339892745018005,"117":0.44423648715019226,"118":-0.34827879071235657,"119":-0.5403856039047241,"120":0.08931834995746613,"121":-0.6464183330535889,"122":0.5187383890151978,"123":-0.4019012451171875,"124":-0.048068247735500336,"125":-0.1703830063343048,"126":-0.19583603739738464,"127":0.12051686644554138,"128":0.0567360445857048,"129":0.04504437372088432,"130":-0.048168834298849106,"131":-0.12931318581104279,"132":-0.06845979392528534,"133":-0.1700281947851181,"134":0.11915423721075058,"135":-0.6312295794487,"136":0.17650887370109558,"137":-0.31727856397628784,"138":-0.695855438709259,"139":-0.2837955951690674,"140":0.5674930810928345,"141":0.6262582540512085,"142":-0.21779011189937592,"143":0.14415180683135986,"144":0.13989345729351044,"145":-0.05138719826936722,"146":0.06109366938471794,"147":0.10413104295730591,"148":0.07112015783786774,"149":-0.08672618120908737,"150":-0.048099350184202194,"151":-0.48247644305229187,"152":-0.12433960288763046,"153":-0.375953733921051,"154":-0.410140722990036,"155":-0.7365494966506958,"156":-0.08923535794019699,"157":0.2493666112422943,"158":0.5621240735054016,"159":0.13898608088493347,"160":0.008385036140680313,"161":-0.1533556878566742,"162":-0.026583340018987656,"163":-0.14416049420833588,"164":0.08360686153173447,"165":0.012240651994943619,"166":-0.05990441143512726,"167":-0.5048770904541016,"168":-0.362880676984787,"169":-0.8870072960853577,"170":0.5521073341369629,"171":0.632817804813385,"172":-0.1794891208410263,"173":-0.2836074233055115,"174":-0.7714697122573853,"175":-0.24973498284816742,"176":-0.6226061582565308,"177":0.47947224974632263,"178":0.5945857763290405,"179":-0.14246556162834167,"180":0.05388913303613663,"181":-0.38437047600746155,"182":-0.8584154844284058,"183":-0.6191160082817078,"184":2.157764434814453,"185":-0.710558295249939,"186":0.10923085361719131,"187":0.008566731587052345,"188":0.05276336520910263,"189":0.16784724593162537,"190":-0.1581931859254837,"191":-0.06495653837919235,"192":0.1446380466222763,"193":-0.1288623958826065,"194":0.14987702667713165,"195":-0.64141446352005,"196":0.19335590302944183,"197":-0.3181104362010956,"198":0.26403719186782837,"199":-0.12266185879707336,"200":-1.1354514360427856,"201":0.7526721954345703,"202":-0.3996489644050598,"203":-0.15605685114860535,"204":0.02016887068748474,"205":0.016988616436719894,"206":0.04179142042994499,"207":0.09071143716573715,"208":-0.14656248688697815,"209":0.07014847546815872,"210":-0.17056667804718018,"211":-0.7459234595298767,"212":0.15511254966259003,"213":-0.09409038722515106,"214":0.018166597932577133,"215":0.06342904269695282,"216":-0.0031913104467093945,"217":-0.1356780081987381,"218":0.07629246264696121,"219":-0.6289688944816589,"220":0.11671091616153717,"221":-0.8730164170265198,"222":0.9564456939697266,"223":-0.494265079498291,"224":-0.16031479835510254,"225":0.274796724319458,"226":-0.3499017655849457,"227":-0.0035814379807561636,"228":-0.20289573073387146,"229":0.13829611241817474,"230":-0.9437929391860962,"231":0.968178391456604,"232":-0.30164700746536255,"233":0.047372590750455856,"234":0.32296115159988403,"235":-0.07920444756746292,"236":-0.6268360018730164,"237":-0.44877827167510986,"238":0.7786638736724854,"239":-0.5956670045852661,"240":-0.16058574616909027,"241":-0.0108456090092659,"242":-0.025157352909445763,"243":0.15865521132946014,"244":0.06948605179786682,"245":-0.033447448164224625,"246":0.11832284927368164,"247":-0.5089435577392578,"248":-0.09924668073654175,"249":-0.10940498113632202,"250":0.4119144082069397,"251":-0.31214600801467896,"252":-0.052213311195373535,"253":0.31196287274360657,"254":-0.417941153049469,"255":-0.19473464787006378,"256":0.11836963146924973,"257":-0.09243910014629364,"258":-0.10583340376615524,"259":-0.021457241848111153,"260":-0.09787353873252869,"261":-0.050418879836797714,"262":0.11920827627182007,"263":-0.45523586869239807,"264":-0.08251312375068665,"265":-0.8716325759887695,"266":0.241628035902977,"267":1.085967779159546,"268":-0.9574358463287354,"269":-0.6448360681533813,"270":0.6174221038818359,"271":0.13405266404151917,"272":0.08619717508554459,"273":1.9353573322296143,"274":-0.639581561088562,"275":-1.0873055458068848,"276":-0.20352426171302795,"277":-0.17792487144470215,"278":-0.966536283493042,"279":0.19758962094783783,"280":0.1999928057193756,"281":-0.13693374395370483,"282":-0.15424996614456177,"283":-0.18956610560417175,"284":-0.0864054411649704,"285":-0.08444485813379288,"286":0.08406184613704681,"287":-0.7696110606193542,"288":-0.6204491853713989,"289":0.5299191474914551,"290":-0.6799256801605225,"291":-0.946242094039917,"292":0.09073343873023987,"293":0.5608350038528442,"294":-0.8964747190475464,"295":-0.6333237886428833,"296":0.10489864647388458,"297":-0.0953545793890953,"298":1.1743061542510986,"299":-0.27850061655044556,"300":-0.019550923258066177,"301":-0.11640612781047821,"302":0.1960432380437851,"303":-0.030679911375045776,"304":0.16430476307868958,"305":-0.05391870439052582,"306":-0.003399811452254653,"307":-0.48780521750450134,"308":0.059726864099502563,"309":-0.21079158782958984,"310":0.2897753119468689,"311":-0.07640016078948975,"312":-0.06702688336372375,"313":-0.6022863388061523,"314":-0.28337767720222473,"315":0.1496218740940094,"316":-0.10764709860086441,"317":0.04726292937994003,"318":-0.08864890038967133,"319":0.0035115887876600027,"320":-0.05595953017473221,"321":-0.018384234979748726,"322":-0.01857040636241436,"323":-0.4009118974208832,"324":0.06685777753591537,"325":-0.1093968078494072,"326":-1.0272109508514404,"327":0.18070295453071594,"328":0.14829695224761963,"329":0.34542688727378845,"330":-0.08062918484210968,"331":0.14951148629188538,"332":0.1348762810230255,"333":-0.19774727523326874,"334":-0.07870599627494812,"335":0.11787813156843185,"336":0.07613593339920044,"337":-0.1979369819164276,"338":0.030863529071211815,"339":-0.7019755244255066,"340":0.1363864243030548,"341":-0.021200913935899734,"342":0.2302621304988861,"343":-0.3070613443851471,"344":0.19218935072422028,"345":-0.3596039116382599,"346":0.16348271071910858,"347":-0.07418583333492279,"348":-0.07475247979164124,"349":-0.17080549895763397,"350":-0.2194613665342331,"351":0.16590890288352966,"352":-0.8693733215332031,"353":0.36469995975494385,"354":-0.6737946271896362,"355":0.6114387512207031,"356":-0.47892364859580994,"357":-0.1728166937828064,"358":-0.0390947163105011,"359":0.11658869683742523,"360":0.07453861832618713,"361":0.011394201777875423,"362":-0.02304437942802906,"363":0.02624647133052349,"364":-0.03724672645330429,"365":0.13478465378284454,"366":0.049380213022232056,"367":-0.7376967072486877,"368":0.08357696235179901,"369":0.35088810324668884,"370":0.423743337392807,"371":0.2642804682254791,"372":-0.8350254893302917,"373":0.2047654092311859,"374":-0.5138497948646545,"375":-0.08097686618566513,"376":0.10149174928665161,"377":-0.3339863419532776,"378":-0.6384517550468445,"379":-0.4448341131210327,"380":0.09693501889705658,"381":-0.42276814579963684,"382":1.1978611946105957,"383":0.12005423754453659,"384":-0.06971296668052673,"385":-0.07787376642227173,"386":-0.021474722772836685,"387":-0.019705232232809067,"388":-0.14098429679870605,"389":0.05219969525933266,"390":-0.06827150285243988,"391":-0.4802350699901581,"392":0.0010974938049912453,"393":-0.694379985332489,"394":-0.5775383710861206,"395":0.4101274907588959,"396":0.6032124161720276,"397":-0.025828111916780472,"398":0.14208157360553741,"399":-0.10214783996343613,"400":0.08207480609416962,"401":0.1666661500930786,"402":0.16303075850009918,"403":-0.11636346578598022,"404":0.048631634563207626,"405":-0.031071720644831657,"406":-0.17591866850852966,"407":-0.7812497019767761,"408":-0.8037374019622803,"409":-1.0015712976455688,"410":-0.4824010133743286,"411":-0.22344569861888885,"412":1.0558204650878906,"413":0.21713808178901672,"414":0.2840212881565094,"415":-0.47989922761917114,"416":-0.16437187790870667,"417":0.12728647887706757,"418":-0.33926424384117126,"419":0.041934140026569366,"420":-0.051840122789144516,"421":0.020060423761606216,"422":-0.033109962940216064,"423":0.08058678358793259,"424":0.00520045030862093,"425":-0.1022891029715538,"426":-0.1479770839214325,"427":-0.5602129101753235,"428":-0.1744662970304489,"429":1.2045248746871948,"430":-0.09543012082576752,"431":0.14986994862556458,"432":-0.4423806369304657,"433":-0.49048346281051636,"434":-0.7260859608650208,"435":0.03317735344171524,"436":-0.11317428201436996,"437":-0.5866212248802185,"438":0.7848902344703674,"439":-0.5176383852958679,"440":-1.027079701423645,"441":0.2782365679740906,"442":0.10918355733156204,"443":0.18971000611782074,"444":-0.0049674068577587605,"445":-0.010041714645922184,"446":0.13028568029403687,"447":0.16630111634731293,"448":0.19449971616268158,"449":-0.08599045872688293,"450":-0.1536915898323059,"451":-0.6966837048530579,"452":-0.06966561824083328,"453":-0.016490202397108078,"454":-0.018015559762716293,"455":-0.11381816118955612,"456":-0.14623259007930756,"457":-0.09825008362531662,"458":-0.042915914207696915,"459":-0.5923855900764465,"460":-0.18886882066726685,"461":0.032467253506183624,"462":-0.02037394978106022,"463":0.31971344351768494,"464":0.20999619364738464,"465":-0.4714088439941406,"466":-0.5380017757415771,"467":-0.0874425545334816,"468":-0.5532205104827881,"469":0.6847785115242004,"470":-0.7708038687705994,"471":-0.10575466603040695,"472":0.13890546560287476,"473":-0.3624110221862793,"474":-0.6009941101074219,"475":-0.4219980537891388,"476":-0.32461708784103394,"477":0.18639634549617767,"478":0.17285999655723572,"479":0.46790915727615356}},"3":{"bias":-0.01723925769329071,"weights":{"0":0.0022110508289188147,"1":-0.8714918494224548,"2":0.6093013286590576,"3":0.536391019821167,"4":0.25883862376213074,"5":-0.1542864590883255,"6":-0.6600475907325745,"7":0.07672512531280518,"8":0.18825510144233704,"9":0.12947867810726166,"10":-0.12646785378456116,"11":-0.048873014748096466,"12":0.1968754082918167,"13":0.16219766438007355,"14":-0.16705985367298126,"15":-0.12503008544445038,"16":0.17455093562602997,"17":0.10134628415107727,"18":0.15209326148033142,"19":-0.17199616134166718,"20":-0.12222415208816528,"21":-0.17668204009532928,"22":-0.07981665432453156,"23":-0.3265343904495239,"24":0.17947553098201752,"25":-0.8421860337257385,"26":0.47451525926589966,"27":1.3695718050003052,"28":-0.5516402125358582,"29":-0.5912818312644958,"30":0.45546531677246094,"31":0.0032312306575477123,"32":-0.12158074229955673,"33":1.566895842552185,"34":-0.9754558205604553,"35":-0.6681725978851318,"36":0.5538438558578491,"37":-0.6260066032409668,"38":-0.08197319507598877,"39":-0.041081156581640244,"40":0.16902197897434235,"41":-0.1987619549036026,"42":-0.03947169706225395,"43":-0.09904016554355621,"44":-0.14740709960460663,"45":0.09029645472764969,"46":-0.07396608591079712,"47":-0.047275375574827194,"48":-0.6936461329460144,"49":0.5875918865203857,"50":0.6312322616577148,"51":-0.10636800527572632,"52":0.40696460008621216,"53":-0.9282514452934265,"54":-0.7074743509292603,"55":-0.8268983960151672,"56":0.6508393287658691,"57":-0.8052494525909424,"58":1.1264539957046509,"59":-0.08179175108671188,"60":0.13331338763237,"61":-0.6550002694129944,"62":0.07427904009819031,"63":1.0075411796569824,"64":-0.40488937497138977,"65":-0.34620997309684753,"66":0.5599437355995178,"67":0.07306645065546036,"68":-0.06526095420122147,"69":0.18871040642261505,"70":0.09592270851135254,"71":-0.12778079509735107,"72":0.04598374664783478,"73":0.12497198581695557,"74":0.14271362125873566,"75":-0.3357926607131958,"76":-0.18040414154529572,"77":0.07756650447845459,"78":-0.08521862328052521,"79":-0.03959781676530838,"80":-0.03030914068222046,"81":-0.13899268209934235,"82":0.1311447024345398,"83":-0.24586918950080872,"84":0.02828384004533291,"85":0.9187843203544617,"86":0.05236763879656792,"87":-0.6945919394493103,"88":-0.15402227640151978,"89":0.4431581199169159,"90":-0.8438674807548523,"91":0.177333265542984,"92":-0.08259736746549606,"93":-0.08691177517175674,"94":0.1953601837158203,"95":-0.19021879136562347,"96":-0.17547737061977386,"97":0.002168776234611869,"98":0.15441282093524933,"99":-0.11386210471391678,"100":-0.040208473801612854,"101":-0.08931845426559448,"102":-0.2327195554971695,"103":0.0020230014342814684,"104":0.3290860652923584,"105":-0.3453913927078247,"106":0.2717868685722351,"107":-0.07573451846837997,"108":0.21822266280651093,"109":-0.6231033205986023,"110":-0.07010374963283539,"111":-0.3786846995353699,"112":0.13059552013874054,"113":0.6666235327720642,"114":-0.5759560465812683,"115":0.18097586929798126,"116":0.9511992335319519,"117":0.06246854364871979,"118":-0.7331116795539856,"119":-0.35813114047050476,"120":-0.07482902705669403,"121":-0.9114956259727478,"122":0.4852544963359833,"123":0.3258066475391388,"124":-1.1587529182434082,"125":0.7923964262008667,"126":0.01320143137127161,"127":0.12553779780864716,"128":-0.08068239688873291,"129":0.14467722177505493,"130":-0.10283233225345612,"131":0.012663956731557846,"132":0.0906057357788086,"133":-0.1156838908791542,"134":0.023079728707671165,"135":-0.11596914380788803,"136":0.16042952239513397,"137":0.4105568528175354,"138":0.14084017276763916,"139":0.5478478670120239,"140":0.28117236495018005,"141":-1.408651351928711,"142":-0.3045651316642761,"143":-0.009091049432754517,"144":0.0391879677772522,"145":-0.10752969235181808,"146":0.002644879277795553,"147":-0.14132611453533173,"148":-0.1268891990184784,"149":0.12467998266220093,"150":-0.1254001259803772,"151":-0.1522185504436493,"152":0.05215626209974289,"153":1.0610488653182983,"154":-0.3127363324165344,"155":-0.7570586204528809,"156":0.2139849066734314,"157":-0.1438296139240265,"158":-0.021452980116009712,"159":0.08567018806934357,"160":0.1624097228050232,"161":-0.1350262463092804,"162":0.11310463398694992,"163":0.05718938261270523,"164":0.07056306302547455,"165":0.030039815232157707,"166":0.1667473167181015,"167":-0.37123364210128784,"168":-0.28749144077301025,"169":0.4192807674407959,"170":0.5990602970123291,"171":0.06874314695596695,"172":-0.44144701957702637,"173":-0.3081929683685303,"174":-0.8617111444473267,"175":0.3699609637260437,"176":0.45209768414497375,"177":0.09297090023756027,"178":-1.1762211322784424,"179":0.9155783653259277,"180":0.059066757559776306,"181":-0.4198141098022461,"182":0.6791638135910034,"183":-1.129319190979004,"184":0.6185105443000793,"185":1.0905861854553223,"186":-0.49045100808143616,"187":0.010949644260108471,"188":-0.08567317575216293,"189":-0.08542144298553467,"190":0.027503088116645813,"191":-0.11960364133119583,"192":-0.1437603235244751,"193":-0.14067868888378143,"194":0.17306943237781525,"195":-0.3330720067024231,"196":-0.16113367676734924,"197":0.2158963829278946,"198":-0.35746923089027405,"199":-0.7345564961433411,"200":0.4939071834087372,"201":-0.21808820962905884,"202":-0.4422597885131836,"203":-0.02390817366540432,"204":0.09419483691453934,"205":0.029040783643722534,"206":-0.060234811156988144,"207":-0.08019282668828964,"208":-0.021251849830150604,"209":-0.08757545799016953,"210":-0.04986737668514252,"211":-0.36512964963912964,"212":-0.12147802114486694,"213":-0.1956855207681656,"214":-0.13782358169555664,"215":-0.07977588474750519,"216":0.057741679251194,"217":0.034493278712034225,"218":-0.13242721557617188,"219":-0.32549959421157837,"220":-0.09203250706195831,"221":0.16563361883163452,"222":-0.0947885811328888,"223":-0.05293696001172066,"224":-1.2960338592529297,"225":0.5914294123649597,"226":0.3384524881839752,"227":0.05598720908164978,"228":0.49287042021751404,"229":-0.15049371123313904,"230":0.5919047594070435,"231":-0.3558100163936615,"232":-0.28768932819366455,"233":-0.7223666310310364,"234":0.7946333289146423,"235":-0.6932006478309631,"236":-1.3435770273208618,"237":-0.03797177970409393,"238":-0.2164507508277893,"239":0.8113624453544617,"240":-0.16261768341064453,"241":-0.18609756231307983,"242":0.1739121824502945,"243":-0.19082637131214142,"244":-0.1949901580810547,"245":0.04178169369697571,"246":0.15871742367744446,"247":-0.1726359724998474,"248":-0.18445122241973877,"249":0.5907659530639648,"250":0.5349622368812561,"251":-0.33865758776664734,"252":-0.8213297128677368,"253":0.32543617486953735,"254":-0.6991800665855408,"255":0.1871083676815033,"256":-0.05841788277029991,"257":0.09183521568775177,"258":0.17032404243946075,"259":0.0653676986694336,"260":-0.15090715885162354,"261":0.06428609788417816,"262":-0.01894270069897175,"263":-0.3322840929031372,"264":-0.06557602435350418,"265":-0.05291496589779854,"266":-0.683395266532898,"267":0.7087857723236084,"268":-0.059920527040958405,"269":-0.36459049582481384,"270":0.34140872955322266,"271":0.04351440817117691,"272":0.004043597262352705,"273":0.3854711949825287,"274":-0.24159346520900726,"275":-0.28699764609336853,"276":-0.1054236888885498,"277":0.06000274792313576,"278":0.4522956907749176,"279":-0.02880794182419777,"280":0.12491672486066818,"281":-0.05985984951257706,"282":-0.17055490612983704,"283":0.0021984477061778307,"284":0.004632046911865473,"285":-0.036925677210092545,"286":-0.11580382287502289,"287":-0.1076030358672142,"288":-0.288258820772171,"289":0.26827263832092285,"290":-0.7674068808555603,"291":0.3966383635997772,"292":-1.020480751991272,"293":0.7872660756111145,"294":-0.17878687381744385,"295":-0.4639594256877899,"296":0.37085020542144775,"297":-0.0038393933791667223,"298":0.8365929126739502,"299":-0.3184703290462494,"300":-0.020505348220467567,"301":-0.17455972731113434,"302":-0.1176198348402977,"303":-0.0010281868744641542,"304":-0.18952468037605286,"305":-0.1781090497970581,"306":0.1219385489821434,"307":-0.16773033142089844,"308":0.06732425093650818,"309":-0.08454353362321854,"310":0.261445015668869,"311":-0.055547140538692474,"312":0.7245388627052307,"313":-1.0994994640350342,"314":-0.0847092866897583,"315":-0.19876092672348022,"316":-0.15729482471942902,"317":0.123451367020607,"318":0.09559685736894608,"319":0.1447821408510208,"320":0.09852661192417145,"321":-0.15786926448345184,"322":-0.04656125232577324,"323":-0.2013395130634308,"324":-0.10152526199817657,"325":0.36847037076950073,"326":-0.6497319340705872,"327":-1.0257436037063599,"328":1.1906980276107788,"329":0.21784675121307373,"330":-0.12056942284107208,"331":0.1617455780506134,"332":-0.03920238837599754,"333":0.16277559101581573,"334":-0.11671091616153717,"335":0.12690387666225433,"336":0.1920989602804184,"337":-0.173418790102005,"338":0.16141486167907715,"339":-0.2786213755607605,"340":0.007791480049490929,"341":-1.203299880027771,"342":0.4003761112689972,"343":0.4674277603626251,"344":-1.4290106296539307,"345":0.8417422771453857,"346":0.3233470022678375,"347":-0.08885638415813446,"348":0.07557116448879242,"349":-0.11739815771579742,"350":-0.21941836178302765,"351":0.40476855635643005,"352":-0.8879517912864685,"353":0.19999998807907104,"354":0.9703761339187622,"355":0.01109741348773241,"356":-1.0172111988067627,"357":0.7674925923347473,"358":-1.0592416524887085,"359":0.2786325216293335,"360":0.08102705329656601,"361":-0.16674038767814636,"362":-0.020886238664388657,"363":0.10264027863740921,"364":-0.09664469212293625,"365":0.09078112989664078,"366":0.013787719421088696,"367":-0.004497826565057039,"368":0.16656731069087982,"369":0.20144835114479065,"370":0.10496747493743896,"371":-0.7048118114471436,"372":-0.6654999852180481,"373":1.0132005214691162,"374":-0.4775868356227875,"375":0.02488175965845585,"376":0.08847136795520782,"377":-0.49360084533691406,"378":-0.048352569341659546,"379":0.15530577301979065,"380":-0.01993773877620697,"381":0.08882135897874832,"382":0.21119557321071625,"383":0.199558824300766,"384":0.07898885011672974,"385":0.16052259504795074,"386":-0.052385423332452774,"387":0.007013189140707254,"388":-0.13689541816711426,"389":-0.05436744913458824,"390":0.17714087665081024,"391":-0.24416080117225647,"392":0.04585766792297363,"393":-0.3799900710582733,"394":0.24679401516914368,"395":-0.49143186211586,"396":0.747139573097229,"397":-0.4591541290283203,"398":0.006916458252817392,"399":-0.06437765806913376,"400":-0.0036682444624602795,"401":0.1862615942955017,"402":-0.09352031350135803,"403":0.14541985094547272,"404":0.12078262865543365,"405":-0.04697931185364723,"406":0.003992661368101835,"407":-0.24577084183692932,"408":0.19580906629562378,"409":-0.34263405203819275,"410":-0.7742444276809692,"411":0.08530311286449432,"412":0.3866552412509918,"413":-0.13873383402824402,"414":-0.141767680644989,"415":0.2205638587474823,"416":1.3206424713134766,"417":-0.64556884765625,"418":0.2586645185947418,"419":-0.5938891172409058,"420":-0.14763979613780975,"421":-0.1832965910434723,"422":0.07968619465827942,"423":0.05598922446370125,"424":-0.061058126389980316,"425":0.025599977001547813,"426":0.09187252074480057,"427":-0.33011043071746826,"428":-0.07646780461072922,"429":0.5521120429039001,"430":-0.8393891453742981,"431":-0.2372959405183792,"432":1.6611801385879517,"433":-1.5040733814239502,"434":0.007463119924068451,"435":-0.16865244507789612,"436":0.1439322978258133,"437":-0.1407114714384079,"438":-0.008268318139016628,"439":-0.17355312407016754,"440":-1.4173492193222046,"441":1.2914522886276245,"442":0.4220826327800751,"443":-0.14587019383907318,"444":0.16983629763126373,"445":0.09133617579936981,"446":-0.11577995121479034,"447":0.0003587274986784905,"448":-0.10858885943889618,"449":-0.024955378845334053,"450":0.0948665589094162,"451":-0.3793562650680542,"452":-0.15943942964076996,"453":-0.14441770315170288,"454":0.09148414433002472,"455":-0.007993226870894432,"456":0.17291079461574554,"457":0.12693502008914948,"458":0.12874703109264374,"459":-0.3157652020454407,"460":0.07029100507497787,"461":-0.5851253867149353,"462":-0.2727428078651428,"463":0.5532495379447937,"464":0.04667762294411659,"465":-0.17973949015140533,"466":0.5357745885848999,"467":-0.1941870003938675,"468":0.5591052770614624,"469":0.27013468742370605,"470":-0.3116336762905121,"471":-0.5005678534507751,"472":0.3446634113788605,"473":-0.5656014084815979,"474":-0.09291891753673553,"475":-0.44062331318855286,"476":-1.4752435684204102,"477":0.6847309470176697,"478":1.244489073753357,"479":-0.30212125182151794}},"4":{"bias":-0.11040198057889938,"weights":{"0":-0.1254500150680542,"1":-0.41137123107910156,"2":-0.30988872051239014,"3":0.22648324072360992,"4":0.2651981711387634,"5":0.18456622958183289,"6":0.118820421397686,"7":-0.1322978436946869,"8":0.10783521085977554,"9":-0.01502964086830616,"10":-0.16361881792545319,"11":0.15277965366840363,"12":-0.053537096828222275,"13":-0.05360933020710945,"14":-0.025826385244727135,"15":-0.40573087334632874,"16":0.11495302617549896,"17":0.09732925891876221,"18":-0.10417479276657104,"19":0.12248112261295319,"20":0.1834389716386795,"21":0.09947874397039413,"22":0.09186644107103348,"23":-0.313813716173172,"24":0.05251995846629143,"25":0.13819022476673126,"26":0.07202023267745972,"27":-0.9245527386665344,"28":0.32314589619636536,"29":0.14633497595787048,"30":-0.015301072038710117,"31":0.0639939233660698,"32":0.13687263429164886,"33":-0.3762577474117279,"34":0.012253673747181892,"35":0.6728258728981018,"36":0.17159822583198547,"37":-0.7054215669631958,"38":0.014736256562173367,"39":0.14613766968250275,"40":0.006438496522605419,"41":0.0005903650308027864,"42":0.12253417074680328,"43":0.08353257179260254,"44":-0.015533206053078175,"45":-0.06136757880449295,"46":0.1081884354352951,"47":-0.04006776213645935,"48":-0.2501382529735565,"49":-0.03871922194957733,"50":-0.3589974641799927,"51":-0.0219541285187006,"52":0.31738245487213135,"53":-0.05660664290189743,"54":0.7449807524681091,"55":0.3989686369895935,"56":0.5764381885528564,"57":-0.7222927808761597,"58":-1.1029540300369263,"59":0.043554361909627914,"60":0.1359196901321411,"61":1.9461946487426758,"62":0.04329138249158859,"63":-0.9308265447616577,"64":-0.3394826352596283,"65":-0.016029231250286102,"66":-0.9282270073890686,"67":0.10004766285419464,"68":-0.16087821125984192,"69":-0.08760687708854675,"70":-0.12469466030597687,"71":-0.06099828705191612,"72":-0.044809434562921524,"73":-0.16365794837474823,"74":-0.13332898914813995,"75":-0.030200475826859474,"76":-0.020681018009781837,"77":0.07106300443410873,"78":0.09190284460783005,"79":-0.06032441556453705,"80":0.0381576307117939,"81":-0.02201930619776249,"82":0.15233378112316132,"83":-0.06551011651754379,"84":0.027619341388344765,"85":-0.29766765236854553,"86":-1.0409289598464966,"87":0.7842226624488831,"88":0.31503525376319885,"89":0.24240119755268097,"90":-0.15993404388427734,"91":-0.06507206708192825,"92":0.0942625030875206,"93":-0.02336112968623638,"94":-0.11703171581029892,"95":0.05164579674601555,"96":0.04665561020374298,"97":-0.06336543709039688,"98":-0.14169850945472717,"99":-0.3356088697910309,"100":-0.0425671823322773,"101":-0.9972202181816101,"102":0.0010826729703694582,"103":1.0257344245910645,"104":-0.4320741593837738,"105":-1.1227630376815796,"106":1.6807760000228882,"107":-0.09534193575382233,"108":1.578316569328308,"109":-0.21870920062065125,"110":0.06836926937103271,"111":-0.03156350925564766,"112":-0.6613479852676392,"113":-1.1448487043380737,"114":-1.183289885520935,"115":0.18721625208854675,"116":-1.1125959157943726,"117":0.8645721673965454,"118":0.6176117062568665,"119":-0.10787822306156158,"120":0.15064464509487152,"121":1.179792046546936,"122":0.20052631199359894,"123":0.4064013957977295,"124":-1.0120290517807007,"125":-0.24586482346057892,"126":-0.22713740170001984,"127":0.10954456776380539,"128":-0.1705312430858612,"129":0.19691506028175354,"130":0.10582099854946136,"131":0.03223927691578865,"132":-0.05778221786022186,"133":0.04382425919175148,"134":-0.12501874566078186,"135":-0.018830539658665657,"136":-0.19519473612308502,"137":-0.6253199577331543,"138":0.2648051977157593,"139":0.04242031276226044,"140":-0.15380464494228363,"141":0.27714550495147705,"142":-0.4476066827774048,"143":0.1873222291469574,"144":-0.02699710614979267,"145":0.09876891225576401,"146":-0.15130625665187836,"147":0.1635219305753708,"148":0.1377037614583969,"149":0.14699754118919373,"150":-0.048881128430366516,"151":-0.3516572415828705,"152":-0.09801897406578064,"153":-0.3900180459022522,"154":-0.5760442018508911,"155":-0.9094063639640808,"156":0.8498666286468506,"157":0.18023404479026794,"158":0.4213537871837616,"159":-0.028331851586699486,"160":0.13553164899349213,"161":0.11407095938920975,"162":0.1464391052722931,"163":0.06428035348653793,"164":0.19970844686031342,"165":0.19620831310749054,"166":0.11317256838083267,"167":-0.14585982263088226,"168":-0.43768152594566345,"169":0.4494064450263977,"170":-0.03454526141285896,"171":0.6485627293586731,"172":-0.2152499258518219,"173":-0.269872784614563,"174":-1.0313029289245605,"175":0.16798721253871918,"176":0.2412407547235489,"177":0.3222372829914093,"178":0.42999041080474854,"179":-0.2004701942205429,"180":0.08006218075752258,"181":1.0731617212295532,"182":0.5809579491615295,"183":-0.382118821144104,"184":-0.7076593637466431,"185":0.03630579635500908,"186":-0.7406805753707886,"187":0.09834729880094528,"188":0.021653778851032257,"189":-0.00407236535102129,"190":0.07455131411552429,"191":-0.06840860843658447,"192":-0.07355524599552155,"193":0.09779928624629974,"194":0.08189927786588669,"195":-0.3128180205821991,"196":0.19033513963222504,"197":1.1705414056777954,"198":0.44494032859802246,"199":0.6831037998199463,"200":-1.0464166402816772,"201":-0.9631237983703613,"202":-0.5436288714408875,"203":0.05618416145443916,"204":0.09172084927558899,"205":0.17289575934410095,"206":-0.16374434530735016,"207":0.10743246972560883,"208":0.09198567271232605,"209":-0.017895029857754707,"210":-0.1343795359134674,"211":-0.39218762516975403,"212":-0.08568451553583145,"213":0.09483589977025986,"214":0.01813790760934353,"215":-0.18855823576450348,"216":0.11954990774393082,"217":0.011858382262289524,"218":-0.16664087772369385,"219":-0.25591394305229187,"220":0.006657973397523165,"221":-1.07988440990448,"222":-0.3094917833805084,"223":-0.9132123589515686,"224":0.7304992079734802,"225":0.8442967534065247,"226":0.20265315473079681,"227":0.19460313022136688,"228":0.2463248372077942,"229":0.16270384192466736,"230":0.570999801158905,"231":-0.20545445382595062,"232":-0.7376044392585754,"233":-0.8614317178726196,"234":0.6607077717781067,"235":0.8149601221084595,"236":-0.1294630616903305,"237":-0.663046658039093,"238":-0.9033783674240112,"239":0.012544376775622368,"240":0.0634743869304657,"241":0.11477771401405334,"242":0.14442051947116852,"243":0.03509395197033882,"244":-0.12174499034881592,"245":-0.015745457261800766,"246":0.0497247613966465,"247":-0.10056256502866745,"248":-0.05626816302537918,"249":-0.6576856970787048,"250":-1.617496132850647,"251":0.2721498906612396,"252":-0.07258221507072449,"253":1.1189944744110107,"254":0.6423548460006714,"255":-0.006008968222886324,"256":-0.09380370378494263,"257":-0.08273603767156601,"258":-0.09356559067964554,"259":0.14600591361522675,"260":0.12036339193582535,"261":-0.14556531608104706,"262":-0.0833539143204689,"263":-0.2647032141685486,"264":0.14753107726573944,"265":0.1783541887998581,"266":-1.3304362297058105,"267":-0.8466028571128845,"268":0.44927677512168884,"269":0.7351625561714172,"270":0.49900028109550476,"271":-0.06602656096220016,"272":0.0876181498169899,"273":0.9971058964729309,"274":1.8395814895629883,"275":-0.25321057438850403,"276":-0.807130753993988,"277":-1.4623229503631592,"278":-0.6499544382095337,"279":-0.09547866135835648,"280":-0.040455807000398636,"281":0.15424026548862457,"282":0.07565051317214966,"283":-0.040729790925979614,"284":-0.1554689109325409,"285":0.037492699921131134,"286":-0.03395166993141174,"287":-0.3312218487262726,"288":1.7996094226837158,"289":0.5416315793991089,"290":0.7549903392791748,"291":-0.7695562839508057,"292":-1.309279441833496,"293":-1.7090080976486206,"294":-0.36190611124038696,"295":0.6814361214637756,"296":1.1358234882354736,"297":-1.4675564765930176,"298":-0.6042141318321228,"299":0.2141081541776657,"300":-0.18733936548233032,"301":0.025289766490459442,"302":0.10234148055315018,"303":-0.08395785838365555,"304":-0.15539033710956573,"305":-0.014659827575087547,"306":-0.1547563374042511,"307":-0.17440055310726166,"308":-0.06940294057130814,"309":-0.7074495553970337,"310":-0.13838796317577362,"311":-0.15312273800373077,"312":0.16384057700634003,"313":0.16136512160301208,"314":0.0857795774936676,"315":0.027630792930722237,"316":0.14839230477809906,"317":0.06954879313707352,"318":0.11110027879476547,"319":-0.12958253920078278,"320":0.012180110439658165,"321":0.19823333621025085,"322":0.10802310705184937,"323":-0.11602766811847687,"324":-0.17615127563476562,"325":-0.4887937605381012,"326":0.2723709046840668,"327":-0.6989166140556335,"328":-0.19934311509132385,"329":0.35344889760017395,"330":0.41700422763824463,"331":-0.09857644885778427,"332":-0.1371925324201584,"333":-0.19285820424556732,"334":0.11809353530406952,"335":0.020361388102173805,"336":-0.19250616431236267,"337":-0.1609031856060028,"338":-0.01685216836631298,"339":-0.3673389256000519,"340":0.10960705578327179,"341":0.22510112822055817,"342":0.13001641631126404,"343":0.7129366993904114,"344":0.5578333735466003,"345":-0.686287522315979,"346":-1.3237056732177734,"347":-0.04647671431303024,"348":-1.174137830734253,"349":0.5620429515838623,"350":0.17479032278060913,"351":0.24088922142982483,"352":0.15926794707775116,"353":-0.16191355884075165,"354":-0.530753493309021,"355":0.42014965415000916,"356":0.2971345782279968,"357":0.7207232117652893,"358":-1.0169702768325806,"359":-0.004437009803950787,"360":0.15389351546764374,"361":0.06119693070650101,"362":-0.11168305575847626,"363":0.16332627832889557,"364":0.13039131462574005,"365":-0.10293903201818466,"366":-0.11438346654176712,"367":-0.37640181183815,"368":-0.04603656381368637,"369":-0.8918783664703369,"370":1.057999610900879,"371":-0.4604093134403229,"372":0.4357379376888275,"373":-0.017762217670679092,"374":-0.6847072243690491,"375":-0.12569482624530792,"376":0.11835121363401413,"377":-0.995364248752594,"378":0.02081575244665146,"379":0.10605386644601822,"380":1.576446294784546,"381":-0.37479159235954285,"382":-0.7299912571907043,"383":-0.02476699836552143,"384":0.026916155591607094,"385":0.1499575674533844,"386":0.19283269345760345,"387":0.17422817647457123,"388":-0.08273223042488098,"389":0.06084723398089409,"390":0.03478243201971054,"391":-0.23599885404109955,"392":0.04160430282354355,"393":-0.34853294491767883,"394":0.09846755117177963,"395":0.2389111965894699,"396":-0.13354505598545074,"397":0.15099261701107025,"398":-0.04681149125099182,"399":-0.01333626452833414,"400":-0.04884488135576248,"401":-0.1464376300573349,"402":-0.04152506962418556,"403":-0.12882140278816223,"404":0.16861827671527863,"405":-0.16104121506214142,"406":0.1527947038412094,"407":-0.40512827038764954,"408":-0.0665341168642044,"409":0.0976729691028595,"410":-0.42777949571609497,"411":-0.03109430894255638,"412":-0.5860194563865662,"413":1.2316970825195312,"414":0.3248080909252167,"415":0.27146387100219727,"416":0.10878433287143707,"417":0.25535595417022705,"418":-0.172498881816864,"419":-0.3575839698314667,"420":-0.13389365375041962,"421":0.06486872583627701,"422":-0.009712887927889824,"423":-0.07956044375896454,"424":0.10886983573436737,"425":0.12450548261404037,"426":0.15041379630565643,"427":-0.2099551111459732,"428":-0.041130878031253815,"429":-0.2861379384994507,"430":-0.3148961663246155,"431":0.030595531687140465,"432":-0.45531708002090454,"433":-0.18470686674118042,"434":1.0558401346206665,"435":-0.18454481661319733,"436":-0.12223092466592789,"437":0.3947162330150604,"438":-0.5413300395011902,"439":-0.32168814539909363,"440":0.6374972462654114,"441":-0.1995653361082077,"442":-0.2832149267196655,"443":-0.12153921276330948,"444":-0.013637539930641651,"445":0.18284405767917633,"446":-0.0020346171222627163,"447":-0.19825561344623566,"448":0.073257677257061,"449":0.029815733432769775,"450":0.12768544256687164,"451":-0.035279661417007446,"452":0.12918372452259064,"453":-0.1039915531873703,"454":0.02433297038078308,"455":-0.17887617647647858,"456":0.13752663135528564,"457":-0.005608431529253721,"458":-0.030747901648283005,"459":-0.040835849940776825,"460":0.016013626009225845,"461":0.3140019476413727,"462":-0.11968270689249039,"463":0.1600072979927063,"464":-0.9569189548492432,"465":0.0502188578248024,"466":0.009797938168048859,"467":-0.18742503225803375,"468":0.08192210644483566,"469":-0.6068713068962097,"470":0.8169589638710022,"471":0.20190121233463287,"472":-0.2327076643705368,"473":-0.6778631210327148,"474":0.20251965522766113,"475":-0.3025331199169159,"476":-0.13755667209625244,"477":0.3376316726207733,"478":-0.36602893471717834,"479":0.12453824281692505}},"5":{"bias":-0.4292186200618744,"weights":{"0":0.18558460474014282,"1":-0.9170669317245483,"2":0.37790536880493164,"3":0.7867102026939392,"4":-0.7178054451942444,"5":0.1993514597415924,"6":-0.008939094841480255,"7":-0.18731330335140228,"8":-0.06025204807519913,"9":0.019754881039261818,"10":-0.005123631563037634,"11":0.00188677036203444,"12":-0.005233120638877153,"13":-0.13744570314884186,"14":0.04050206020474434,"15":-0.4495445787906647,"16":0.040623631328344345,"17":0.12516741454601288,"18":0.15130466222763062,"19":-0.14208197593688965,"20":0.16033679246902466,"21":-0.029993215575814247,"22":0.15901271998882294,"23":-0.23747414350509644,"24":0.10507301986217499,"25":-0.5721065998077393,"26":0.6225764751434326,"27":-0.18836471438407898,"28":1.711596131324768,"29":-1.4188917875289917,"30":-0.5181015729904175,"31":0.004521474242210388,"32":-0.09874913841485977,"33":-0.3228248655796051,"34":-0.9216656684875488,"35":0.6057109236717224,"36":0.23171798884868622,"37":-0.2728371024131775,"38":-0.26960626244544983,"39":-0.05936965346336365,"40":-0.1802128553390503,"41":-0.1197686493396759,"42":-0.12456974387168884,"43":0.17359976470470428,"44":-0.09735781699419022,"45":0.11361701041460037,"46":-0.18788854777812958,"47":-0.40576669573783875,"48":-0.9371663331985474,"49":-0.35616815090179443,"50":0.4955090582370758,"51":-0.24745653569698334,"52":0.62641441822052,"53":-0.0315951444208622,"54":0.7824854254722595,"55":-1.6431416273117065,"56":0.6593428254127502,"57":-0.2874838709831238,"58":-0.28255772590637207,"59":0.31210607290267944,"60":0.18877959251403809,"61":0.44315922260284424,"62":1.235647439956665,"63":-0.8272536993026733,"64":0.24825255572795868,"65":-0.5420792698860168,"66":-1.0597764253616333,"67":-0.007674276828765869,"68":-0.059485454112291336,"69":0.1335328072309494,"70":0.10125815123319626,"71":0.18955139815807343,"72":-0.08526165783405304,"73":0.07428622990846634,"74":-0.1586170196533203,"75":-0.5779098868370056,"76":-0.025963712483644485,"77":0.12836970388889313,"78":-0.046457964926958084,"79":-0.08254861831665039,"80":0.02345903590321541,"81":-0.16694751381874084,"82":-0.19404155015945435,"83":-0.17477545142173767,"84":-0.03386222943663597,"85":0.20079004764556885,"86":-0.9018272757530212,"87":0.6090973019599915,"88":0.7411696910858154,"89":-0.6328467726707458,"90":-0.14899961650371552,"91":0.16385656595230103,"92":0.06850594282150269,"93":0.09465594589710236,"94":0.08326714485883713,"95":-0.0792415514588356,"96":0.1263876110315323,"97":0.0027705722022801638,"98":-0.05619993060827255,"99":-0.15848180651664734,"100":0.03275104612112045,"101":1.5188045501708984,"102":0.518907368183136,"103":0.1358836591243744,"104":-3.792217969894409,"105":0.6361820697784424,"106":0.28257155418395996,"107":-0.07685014605522156,"108":0.1438850611448288,"109":-0.03667676821351051,"110":1.4106345176696777,"111":0.4289034903049469,"112":-1.1587146520614624,"113":-1.319088101387024,"114":0.7425960302352905,"115":-0.5272502303123474,"116":-0.7006127834320068,"117":0.13065531849861145,"118":0.3805038034915924,"119":-0.6356237530708313,"120":-0.17040905356407166,"121":-1.5540050268173218,"122":-1.2945277690887451,"123":0.2280241698026657,"124":0.43821701407432556,"125":0.3124714493751526,"126":1.3309907913208008,"127":0.05531657487154007,"128":-0.17792485654354095,"129":0.10353538393974304,"130":-0.0680525004863739,"131":0.022046808153390884,"132":0.039575494825839996,"133":0.16377249360084534,"134":-0.18616649508476257,"135":-0.4590766131877899,"136":0.11129415035247803,"137":0.6735307574272156,"138":0.06348098814487457,"139":-0.4035588800907135,"140":-1.1845425367355347,"141":0.458147794008255,"142":-0.3665088415145874,"143":-0.08196140825748444,"144":-0.04843233898282051,"145":-0.06915247440338135,"146":-0.031287845224142075,"147":-0.18218515813350677,"148":-0.14673694968223572,"149":0.037403713911771774,"150":0.1975456327199936,"151":-0.24354030191898346,"152":-0.05274408310651779,"153":0.7643747925758362,"154":-0.33485352993011475,"155":-0.06481032818555832,"156":0.30017125606536865,"157":-0.8096932768821716,"158":-0.2614688277244568,"159":-0.13645759224891663,"160":0.11069666594266891,"161":-0.09546829760074615,"162":-0.0994839295744896,"163":0.19275179505348206,"164":-0.03331967443227768,"165":0.19406850636005402,"166":-0.18316680192947388,"167":-0.5571570992469788,"168":-0.16548165678977966,"169":0.1642419695854187,"170":-1.0421563386917114,"171":-0.13676735758781433,"172":-0.07648061215877533,"173":1.220343828201294,"174":-0.19318105280399323,"175":-0.22481942176818848,"176":0.31939682364463806,"177":-0.4954204559326172,"178":0.17963923513889313,"179":0.45513927936553955,"180":0.000014597083463741,"181":-0.06363291293382645,"182":0.23020674288272858,"183":-0.2052321434020996,"184":-1.3841133117675781,"185":-0.08185739815235138,"186":0.746488094329834,"187":0.005382751114666462,"188":-0.198302760720253,"189":0.18441979587078094,"190":0.0017883521504700184,"191":-0.06680483371019363,"192":-0.15137320756912231,"193":0.1466827690601349,"194":-0.026683012023568153,"195":-0.2742132842540741,"196":0.11781235039234161,"197":0.17026035487651825,"198":-0.5335594415664673,"199":0.03695788234472275,"200":0.3173367977142334,"201":-0.4554912745952606,"202":0.21260176599025726,"203":0.06876251101493835,"204":0.19405131042003632,"205":0.10108740627765656,"206":0.13254594802856445,"207":-0.1959400624036789,"208":-0.16802135109901428,"209":0.136549174785614,"210":-0.19807063043117523,"211":-0.5013254284858704,"212":0.13347744941711426,"213":0.19381895661354065,"214":-0.08521955460309982,"215":0.16658179461956024,"216":0.14496752619743347,"217":0.025704367086291313,"218":0.18070167303085327,"219":-0.23155748844146729,"220":0.024213489145040512,"221":-1.1785165071487427,"222":0.08681357651948929,"223":-0.2854372262954712,"224":1.3693253993988037,"225":0.6638461351394653,"226":-1.2726894617080688,"227":-0.02925199829041958,"228":-1.048004388809204,"229":-0.39744460582733154,"230":0.530356228351593,"231":0.039176106452941895,"232":0.4270756244659424,"233":0.4236116409301758,"234":0.7528349161148071,"235":0.06802047044038773,"236":0.06450847536325455,"237":-0.2789801359176636,"238":-0.6156306862831116,"239":-0.10492190718650818,"240":-0.16932661831378937,"241":-0.17335060238838196,"242":0.02067277766764164,"243":-0.18876592814922333,"244":0.06467939168214798,"245":-0.03233467414975166,"246":-0.18891984224319458,"247":-0.379306823015213,"248":0.16218207776546478,"249":-0.9199265837669373,"250":0.9426681995391846,"251":0.1916639506816864,"252":-1.4125807285308838,"253":0.7979808449745178,"254":-0.11827711760997772,"255":-0.07688023895025253,"256":0.03426569327712059,"257":-0.11935434490442276,"258":0.1761905401945114,"259":-0.14171715080738068,"260":-0.19260837137699127,"261":0.11841382831335068,"262":0.023182546719908714,"263":-0.3925122320652008,"264":-0.08191405981779099,"265":0.20950675010681152,"266":-1.0737245082855225,"267":0.32186147570610046,"268":0.5497542023658752,"269":-0.35305872559547424,"270":-0.2325846552848816,"271":0.18985405564308167,"272":0.11615694314241409,"273":0.8879015445709229,"274":-0.1971842646598816,"275":-1.0947675704956055,"276":0.0665975883603096,"277":-0.5421757102012634,"278":-0.12803427875041962,"279":-0.0988263413310051,"280":-0.051549237221479416,"281":-0.11983951926231384,"282":0.09443220496177673,"283":-0.09906378388404846,"284":-0.07540819048881531,"285":-0.11514667421579361,"286":-0.0011967646423727274,"287":-0.208793044090271,"288":-0.22069552540779114,"289":-0.3361276090145111,"290":-0.27762922644615173,"291":0.05950082466006279,"292":-0.7263583540916443,"293":0.9001013040542603,"294":-0.8445159792900085,"295":-0.4710709750652313,"296":0.5767256617546082,"297":-0.3120017945766449,"298":0.3360140025615692,"299":0.33892080187797546,"300":0.14719556272029877,"301":-0.15003709495067596,"302":0.025074688717722893,"303":-0.035036664456129074,"304":0.15968166291713715,"305":0.0808686837553978,"306":0.14482896029949188,"307":-0.5115633010864258,"308":0.12543359398841858,"309":0.3949096202850342,"310":0.7192814946174622,"311":0.6877944469451904,"312":-1.421027421951294,"313":0.5183249115943909,"314":-0.9812330603599548,"315":0.05754954367876053,"316":0.12046441435813904,"317":0.06465858221054077,"318":0.060174789279699326,"319":-0.11720532178878784,"320":0.02277994714677334,"321":0.15895959734916687,"322":-0.04843997582793236,"323":-0.5170096755027771,"324":-0.07951130717992783,"325":1.3775118589401245,"326":-0.23373889923095703,"327":-0.5503557324409485,"328":-0.6488465070724487,"329":-0.6651736497879028,"330":0.3922838568687439,"331":0.026696166023612022,"332":0.05462702736258507,"333":-0.09450238198041916,"334":-0.18329453468322754,"335":-0.05721830949187279,"336":-0.17056259512901306,"337":0.09171885997056961,"338":0.18044210970401764,"339":-0.3274994194507599,"340":0.07830194383859634,"341":-1.1192477941513062,"342":0.1665487289428711,"343":-0.2639709413051605,"344":1.3603575229644775,"345":-0.2827233672142029,"346":-0.29152703285217285,"347":0.1226101964712143,"348":-0.33231115341186523,"349":0.09859643131494522,"350":-0.7073318362236023,"351":0.3533738851547241,"352":-0.5335997939109802,"353":0.5180501341819763,"354":-0.3390129804611206,"355":-0.6700700521469116,"356":0.2060457468032837,"357":-0.40813103318214417,"358":-0.632696807384491,"359":0.9158858060836792,"360":-0.1512027382850647,"361":-0.15795870125293732,"362":0.04563310742378235,"363":0.17342397570610046,"364":-0.0934358462691307,"365":-0.01796909049153328,"366":0.18393439054489136,"367":-0.1617966592311859,"368":0.013582301326096058,"369":0.8358381390571594,"370":-0.2826484739780426,"371":-0.6786415576934814,"372":-1.0949023962020874,"373":0.2156320959329605,"374":0.3764578402042389,"375":-0.09277667850255966,"376":0.11403731256723404,"377":-1.4061437845230103,"378":0.22791893780231476,"379":0.061769165098667145,"380":0.6773450970649719,"381":0.28871920704841614,"382":-0.35143882036209106,"383":-0.01757189817726612,"384":0.18338797986507416,"385":-0.16971394419670105,"386":0.09443356096744537,"387":-0.023852497339248657,"388":0.06100871041417122,"389":-0.0020181341096758842,"390":-0.01806146278977394,"391":-0.40819671750068665,"392":-0.04516031965613365,"393":0.4140499532222748,"394":-0.2866551876068115,"395":-0.8666420578956604,"396":0.20173250138759613,"397":0.3068062961101532,"398":-0.2506340742111206,"399":-0.18984396755695343,"400":0.10414963215589523,"401":-0.19969549775123596,"402":0.03938242793083191,"403":0.1646236628293991,"404":0.011839102022349834,"405":-0.19700191915035248,"406":0.16474278271198273,"407":-0.260663777589798,"408":-0.32283759117126465,"409":0.21333493292331696,"410":0.6423782110214233,"411":-0.3787972629070282,"412":-0.13215938210487366,"413":-0.4434379041194916,"414":-0.6862406134605408,"415":-0.0818360298871994,"416":0.3659677803516388,"417":0.41383621096611023,"418":0.2439233660697937,"419":-0.555148720741272,"420":-0.049648214131593704,"421":0.0025252443738281727,"422":-0.17475910484790802,"423":-0.07087908685207367,"424":0.0894540324807167,"425":0.05551692470908165,"426":-0.12422952055931091,"427":-0.25586169958114624,"428":0.13099581003189087,"429":-0.7644868493080139,"430":-1.175747036933899,"431":0.33064985275268555,"432":1.3398407697677612,"433":-0.3383813798427582,"434":0.07918274402618408,"435":0.06676658242940903,"436":-0.05862317234277725,"437":-0.1500423401594162,"438":-0.11056118458509445,"439":-0.5639960169792175,"440":-0.6093466877937317,"441":1.0811326503753662,"442":0.05824512988328934,"443":-0.16490699350833893,"444":-0.025534840300679207,"445":-0.1343042254447937,"446":-0.03931416943669319,"447":-0.021519506350159645,"448":-0.16096481680870056,"449":0.08897589892148972,"450":-0.18528172373771667,"451":-0.2739448845386505,"452":0.04243851453065872,"453":0.018863853067159653,"454":-0.13100789487361908,"455":0.028802355751395226,"456":-0.17984721064567566,"457":0.029209664091467857,"458":0.051156867295503616,"459":-0.40024271607398987,"460":0.037863414734601974,"461":-0.46508917212486267,"462":0.011390931904315948,"463":0.08527849614620209,"464":-0.23597078025341034,"465":-0.9288848042488098,"466":0.7728070020675659,"467":0.12987038493156433,"468":0.6026102304458618,"469":-0.3678385317325592,"470":0.26462745666503906,"471":0.07471054792404175,"472":-0.16623848676681519,"473":-1.034284234046936,"474":-0.7617959380149841,"475":-0.5422257781028748,"476":-0.46392831206321716,"477":0.2034256011247635,"478":1.134049415588379,"479":0.06598804891109467}},"6":{"bias":-0.3439328074455261,"weights":{"0":-0.14815759658813477,"1":-0.5037417411804199,"2":-0.40297549962997437,"3":-0.5015848278999329,"4":0.42862772941589355,"5":-0.34641486406326294,"6":0.8661902546882629,"7":-0.0977332815527916,"8":-0.1672889143228531,"9":-0.1393008530139923,"10":0.17671364545822144,"11":0.041770853102207184,"12":0.11775310337543488,"13":0.16058911383152008,"14":-0.0045560686849057674,"15":-0.3068324327468872,"16":0.11736324429512024,"17":0.0212340597063303,"18":0.034657422453165054,"19":0.09508403390645981,"20":0.14573998749256134,"21":-0.1576625108718872,"22":0.18451586365699768,"23":-0.3012204170227051,"24":0.005062594078481197,"25":-1.0126973390579224,"26":-0.4485325217247009,"27":-0.05206383764743805,"28":0.4991888999938965,"29":0.08863244205713272,"30":0.45477843284606934,"31":0.17471875250339508,"32":0.010052465833723545,"33":1.1110715866088867,"34":0.02069307491183281,"35":1.4790072441101074,"36":-0.8108925819396973,"37":-0.6880602836608887,"38":-1.1605299711227417,"39":-0.14008565247058868,"40":0.012922854162752628,"41":-0.1712009608745575,"42":0.021236948668956757,"43":-0.03830461576581001,"44":-0.12320443242788315,"45":0.13965781033039093,"46":-0.17179913818836212,"47":-0.31802457571029663,"48":0.15509642660617828,"49":0.7116439342498779,"50":-0.7361218333244324,"51":-1.2155686616897583,"52":-0.26578181982040405,"53":1.0431264638900757,"54":1.4173707962036133,"55":0.2607373893260956,"56":-0.579196572303772,"57":-0.6173313856124878,"58":0.019202109426259995,"59":-0.3649481534957886,"60":-0.16867464780807495,"61":0.19534948468208313,"62":-0.010809611529111862,"63":-0.9217519760131836,"64":0.3621804118156433,"65":0.42860981822013855,"66":-0.11840500682592392,"67":0.18075910210609436,"68":0.1306001842021942,"69":0.13190259039402008,"70":-0.12850341200828552,"71":0.12264285981655121,"72":0.1385347992181778,"73":0.18268442153930664,"74":0.030948961153626442,"75":-0.11309080570936203,"76":0.12145480513572693,"77":0.043097060173749924,"78":-0.002333681099116802,"79":-0.17949901521205902,"80":-0.12618297338485718,"81":0.09599702805280685,"82":0.015399509109556675,"83":-0.25062769651412964,"84":0.1904038041830063,"85":-0.7498142123222351,"86":-0.8981820344924927,"87":0.5090817809104919,"88":0.608798086643219,"89":0.1568613350391388,"90":0.16597245633602142,"91":-0.002748673316091299,"92":0.1818498820066452,"93":-0.08107420057058334,"94":-0.1977633535861969,"95":0.07010969519615173,"96":-0.08927688747644424,"97":-0.10328007489442825,"98":-0.1982201784849167,"99":-0.01669243536889553,"100":-0.15244393050670624,"101":-0.2929297685623169,"102":0.23400048911571503,"103":-0.763730525970459,"104":-0.09841285645961761,"105":0.17066428065299988,"106":0.5067312121391296,"107":0.07665935903787613,"108":0.37191298604011536,"109":0.1149282231926918,"110":0.0028274264186620712,"111":0.42877718806266785,"112":-1.0021177530288696,"113":-0.1987815499305725,"114":0.1905670166015625,"115":0.45499950647354126,"116":-1.0301752090454102,"117":-0.4774704575538635,"118":0.478069543838501,"119":0.3455664813518524,"120":0.01912524737417698,"121":-0.3638148903846741,"122":0.04901900887489319,"123":0.2226819396018982,"124":-0.6455526947975159,"125":0.4410122334957123,"126":0.46472829580307007,"127":-0.13396142423152924,"128":-0.08439355343580246,"129":0.0212873425334692,"130":0.13994427025318146,"131":-0.11967489868402481,"132":-0.05475236475467682,"133":-0.12405632436275482,"134":-0.00611281068995595,"135":-0.007767155300825834,"136":-0.180795356631279,"137":0.5862662196159363,"138":0.951932966709137,"139":-1.0218867063522339,"140":0.045871615409851074,"141":-0.041737038642168045,"142":-0.8819251656532288,"143":0.16656658053398132,"144":-0.09123983234167099,"145":0.15980789065361023,"146":0.19798947870731354,"147":0.05783795192837715,"148":-0.07463449984788895,"149":-0.05710693821310997,"150":0.00288326945155859,"151":-0.30197906494140625,"152":0.17085514962673187,"153":0.18488085269927979,"154":-0.8142811059951782,"155":-0.23976100981235504,"156":0.2869097590446472,"157":-0.07158755511045456,"158":0.06765685230493546,"159":-0.10242672264575958,"160":0.07126758247613907,"161":-0.08006005734205246,"162":0.040732692927122116,"163":-0.09733149409294128,"164":0.14443683624267578,"165":0.16430599987506866,"166":-0.11316709220409393,"167":-0.16872166097164154,"168":-0.6813772916793823,"169":0.8920359015464783,"170":0.08880218863487244,"171":0.04240383580327034,"172":-0.9294515252113342,"173":0.21244968473911285,"174":-0.22630609571933746,"175":-0.6665490865707397,"176":0.31485432386398315,"177":0.10704786330461502,"178":0.2276587188243866,"179":0.3709878623485565,"180":0.10734297335147858,"181":-0.8432649970054626,"182":-0.5969924330711365,"183":0.07658784091472626,"184":0.9624993801116943,"185":1.0255781412124634,"186":-0.8440906405448914,"187":0.07701198756694794,"188":0.18607197701931,"189":0.004131973721086979,"190":-0.08056186884641647,"191":0.09764611721038818,"192":0.19907508790493011,"193":-0.17807430028915405,"194":-0.0724857971072197,"195":-0.368952214717865,"196":0.15696901082992554,"197":0.12694230675697327,"198":0.08283931016921997,"199":-0.004559656605124474,"200":-0.49845826625823975,"201":0.08101028949022293,"202":-0.43739980459213257,"203":-0.11794135719537735,"204":0.09640073776245117,"205":0.028554873540997505,"206":0.0815243050456047,"207":-0.06929295510053635,"208":-0.18558235466480255,"209":-0.07892336696386337,"210":-0.185623437166214,"211":-0.08117016404867172,"212":-0.046638552099466324,"213":-0.1690395474433899,"214":0.000054356827604351565,"215":-0.09355011582374573,"216":0.13400450348854065,"217":0.06860600411891937,"218":0.17620031535625458,"219":-0.32617485523223877,"220":0.05799481272697449,"221":0.36061620712280273,"222":-0.23807112872600555,"223":-0.44561097025871277,"224":-0.7986317873001099,"225":-1.1161617040634155,"226":1.5586926937103271,"227":-0.04555298388004303,"228":1.4973440170288086,"229":0.06744380295276642,"230":-0.7289877533912659,"231":-0.13926546275615692,"232":-0.3990420699119568,"233":-0.8445600867271423,"234":-1.0621267557144165,"235":0.15152372419834137,"236":-0.0504312627017498,"237":-0.3249824345111847,"238":0.20098525285720825,"239":1.066665530204773,"240":-0.16652533411979675,"241":0.07142650336027145,"242":-0.11715710163116455,"243":0.12421881407499313,"244":0.1641058474779129,"245":0.08517596870660782,"246":0.033041324466466904,"247":-0.03215121105313301,"248":0.06260017305612564,"249":-0.45786401629447937,"250":-0.2665480673313141,"251":-0.33956924080848694,"252":-0.11127006262540817,"253":0.6807670593261719,"254":0.424315482378006,"255":-0.1045897901058197,"256":0.1557217836380005,"257":-0.13992515206336975,"258":-0.18658524751663208,"259":-0.1599072366952896,"260":-0.05380962789058685,"261":-0.06800465285778046,"262":0.036315612494945526,"263":-0.3921111226081848,"264":0.10643016546964645,"265":0.2897702157497406,"266":1.690346121788025,"267":-1.5457381010055542,"268":-0.31814658641815186,"269":0.5838523507118225,"270":-1.1385729312896729,"271":-0.10933264344930649,"272":-0.18797314167022705,"273":-0.2540706396102905,"274":-0.7058906555175781,"275":0.5797213315963745,"276":0.4968356490135193,"277":-0.4281027615070343,"278":0.02708086371421814,"279":0.05986292287707329,"280":-0.12634176015853882,"281":0.1784774512052536,"282":-0.08938238024711609,"283":-0.06798099726438522,"284":-0.07012701779603958,"285":-0.10401824861764908,"286":-0.09986066073179245,"287":-0.19185660779476166,"288":-0.7323380708694458,"289":-1.070404052734375,"290":0.49046507477760315,"291":0.0003300124953966588,"292":1.691384196281433,"293":-0.2632143795490265,"294":0.7273160219192505,"295":0.7463440299034119,"296":0.6635768413543701,"297":-0.6636712551116943,"298":-1.473004937171936,"299":-0.23465119302272797,"300":0.11707215756177902,"301":-0.08147525787353516,"302":0.1145147904753685,"303":-0.051095347851514816,"304":0.15157367289066315,"305":-0.17571479082107544,"306":-0.10982504487037659,"307":-0.2034040242433548,"308":0.18853053450584412,"309":0.5454064607620239,"310":-0.6114682555198669,"311":0.10025762766599655,"312":-0.6323660016059875,"313":0.9107739329338074,"314":-0.7291592955589294,"315":-0.178606316447258,"316":0.046036139130592346,"317":-0.03699169307947159,"318":0.17164821922779083,"319":-0.18384382128715515,"320":0.12425094097852707,"321":0.01965099759399891,"322":0.038887206465005875,"323":-0.20876963436603546,"324":0.12180987000465393,"325":-0.11826425790786743,"326":0.6403435468673706,"327":0.08919952064752579,"328":-0.19606703519821167,"329":-0.5340858101844788,"330":-0.331956684589386,"331":0.14507591724395752,"332":0.04327652230858803,"333":0.013574495911598206,"334":-0.058204494416713715,"335":0.18018975853919983,"336":-0.022689398378133774,"337":-0.026920655742287636,"338":-0.1933194100856781,"339":-0.20447863638401031,"340":0.06597370654344559,"341":0.2077668011188507,"342":0.20408019423484802,"343":0.2756945788860321,"344":0.3140399158000946,"345":-1.438154935836792,"346":0.42875853180885315,"347":-0.0917227640748024,"348":0.0860578715801239,"349":-0.10089393705129623,"350":-0.7483417391777039,"351":0.28977981209754944,"352":0.6958415508270264,"353":-0.3218517601490021,"354":-1.5376644134521484,"355":-0.6152253746986389,"356":0.9142423272132874,"357":0.34313079714775085,"358":0.38472068309783936,"359":0.1575506329536438,"360":-0.09372982382774353,"361":0.09177815169095993,"362":-0.17417673766613007,"363":-0.19764778017997742,"364":0.09194573014974594,"365":-0.1747550666332245,"366":-0.02623687870800495,"367":-0.27127009630203247,"368":-0.10049267113208771,"369":0.3107447028160095,"370":-0.03852057084441185,"371":-0.48993003368377686,"372":0.1782568097114563,"373":-0.777455747127533,"374":0.720808744430542,"375":-0.04477028548717499,"376":0.19992314279079437,"377":-0.3139241635799408,"378":1.0009955167770386,"379":0.23041677474975586,"380":-0.18021567165851593,"381":-0.3805157244205475,"382":-0.6062072515487671,"383":0.014077944681048393,"384":0.17133182287216187,"385":-0.09634899348020554,"386":0.17818456888198853,"387":-0.1083628386259079,"388":-0.058835241943597794,"389":-0.13965652883052826,"390":-0.13605569303035736,"391":-0.18936772644519806,"392":-0.04594326764345169,"393":-0.0205635204911232,"394":-0.4970666766166687,"395":0.5880812406539917,"396":-0.7650290727615356,"397":0.745745062828064,"398":-0.6341875791549683,"399":-0.019612595438957214,"400":0.15199410915374756,"401":0.18073689937591553,"402":0.19456371665000916,"403":-0.01985771767795086,"404":0.07409382611513138,"405":-0.12994948029518127,"406":0.1600421667098999,"407":-0.3647693395614624,"408":-0.46456214785575867,"409":0.9798063039779663,"410":0.7093203067779541,"411":-0.31448498368263245,"412":-0.7817937135696411,"413":-0.17815954983234406,"414":0.6113841533660889,"415":0.20265284180641174,"416":-0.9334489703178406,"417":0.9286079406738281,"418":-0.24434001743793488,"419":-0.7964921593666077,"420":0.0006868529017083347,"421":-0.15889646112918854,"422":0.09630490094423294,"423":0.0050873346626758575,"424":-0.08334987610578537,"425":-0.11370305716991425,"426":-0.04218749701976776,"427":-0.3803415298461914,"428":0.09854558855295181,"429":-0.2090781182050705,"430":0.2053450644016266,"431":0.11614004522562027,"432":0.4565288722515106,"433":-0.6777991652488708,"434":-0.14115910232067108,"435":-0.1285650134086609,"436":0.01643318310379982,"437":-1.2972098588943481,"438":-1.4317454099655151,"439":0.9218894839286804,"440":0.8834745287895203,"441":-0.14135965704917908,"442":0.6077688336372375,"443":-0.04830219969153404,"444":0.18196561932563782,"445":0.16105982661247253,"446":0.021566372364759445,"447":-0.026415299624204636,"448":-0.10572624951601028,"449":0.19041766226291656,"450":0.028018919751048088,"451":-0.14268313348293304,"452":-0.006464992184191942,"453":0.07731778174638748,"454":0.11895103752613068,"455":-0.18476097285747528,"456":0.1508656144142151,"457":-0.18824230134487152,"458":-0.09248468279838562,"459":-0.17288221418857574,"460":-0.11567182838916779,"461":1.0760880708694458,"462":0.728050947189331,"463":-0.275302916765213,"464":-1.575149416923523,"465":-0.175853431224823,"466":-0.3846224546432495,"467":-0.1557791829109192,"468":-0.4484621286392212,"469":-1.5201109647750854,"470":-0.09874996542930603,"471":0.6856924295425415,"472":0.8107067942619324,"473":0.4602002799510956,"474":-0.25582778453826904,"475":0.95554119348526,"476":-0.4313090145587921,"477":-0.2550523579120636,"478":0.11485446244478226,"479":-0.08450209349393845}},"7":{"bias":-0.22691506147384644,"weights":{"0":-0.044968053698539734,"1":1.149019479751587,"2":-0.4882110357284546,"3":-0.21181261539459229,"4":0.20486107468605042,"5":0.13675421476364136,"6":-1.0182735919952393,"7":0.14567744731903076,"8":-0.18263934552669525,"9":0.009450212121009827,"10":0.014302922412753105,"11":0.03256743401288986,"12":-0.059832990169525146,"13":0.04938804358243942,"14":-0.0874471366405487,"15":-0.06524238735437393,"16":-0.14709822833538055,"17":-0.11483125388622284,"18":0.04260819032788277,"19":-0.15588299930095673,"20":0.15403848886489868,"21":0.04195720702409744,"22":0.19102971255779266,"23":-0.4259149730205536,"24":-0.06772962957620621,"25":-1.3697272539138794,"26":0.08132472634315491,"27":0.014172840863466263,"28":-0.8462958335876465,"29":0.4784189760684967,"30":1.3071306943893433,"31":0.16984997689723969,"32":0.03907246142625809,"33":0.03694889321923256,"34":-0.24921448528766632,"35":-0.47695451974868774,"36":0.5446502566337585,"37":-0.6299969553947449,"38":0.05479170382022858,"39":-0.1199621930718422,"40":-0.17588390409946442,"41":-0.06681826710700989,"42":0.18577812612056732,"43":0.06278271973133087,"44":-0.15246990323066711,"45":-0.12138941138982773,"46":0.19776615500450134,"47":-0.2674388587474823,"48":-0.3001049757003784,"49":1.1034725904464722,"50":-0.527168869972229,"51":0.09557092189788818,"52":0.26386645436286926,"53":-1.1310251951217651,"54":-0.446824312210083,"55":0.48202893137931824,"56":-0.23049509525299072,"57":-0.5503271222114563,"58":-0.3185681998729706,"59":0.13798058032989502,"60":0.006634471472352743,"61":-1.2861180305480957,"62":-1.3843519687652588,"63":0.789292573928833,"64":1.355942726135254,"65":0.09649079293012619,"66":-0.05673709884285927,"67":-0.19478218257427216,"68":-0.05388965085148811,"69":0.1525241732597351,"70":0.13029010593891144,"71":0.10757393389940262,"72":-0.04468753561377525,"73":-0.062334537506103516,"74":0.03462427482008934,"75":-0.36390402913093567,"76":0.04922223836183548,"77":-0.18632589280605316,"78":0.027658987790346146,"79":-0.16415460407733917,"80":0.05480652675032616,"81":0.06683316826820374,"82":-0.10908106714487076,"83":-0.41939106583595276,"84":-0.0604567788541317,"85":-1.0912610292434692,"86":0.4885959029197693,"87":-1.034543752670288,"88":1.02865469455719,"89":-0.4741211235523224,"90":0.9388657212257385,"91":-0.10884838551282883,"92":0.16068287193775177,"93":-0.1118982806801796,"94":-0.0009525951463729143,"95":-0.06042613461613655,"96":0.1436012238264084,"97":-0.19021937251091003,"98":0.06864798069000244,"99":-0.33480581641197205,"100":0.11033818125724792,"101":-0.8423694968223572,"102":-0.6051976084709167,"103":-0.7384169101715088,"104":0.6466585397720337,"105":0.8242897391319275,"106":0.5531569719314575,"107":-0.15937641263008118,"108":0.3252437114715576,"109":0.6903005242347717,"110":-1.2082149982452393,"111":-0.4953427314758301,"112":0.25096017122268677,"113":0.021927235648036003,"114":0.6439746022224426,"115":-0.19161716103553772,"116":0.8029823303222656,"117":-0.6999690532684326,"118":-1.074110984802246,"119":-0.10468078404664993,"120":-0.13020050525665283,"121":0.49211129546165466,"122":-0.3751199245452881,"123":0.5242742300033569,"124":-0.3892382085323334,"125":-0.3801366686820984,"126":-0.49339011311531067,"127":-0.09513339400291443,"128":-0.12780198454856873,"129":0.1320721060037613,"130":-0.029209252446889877,"131":-0.06298146396875381,"132":-0.17665371298789978,"133":0.04202054813504219,"134":0.19812190532684326,"135":-0.20218756794929504,"136":-0.18079502880573273,"137":-0.11593322455883026,"138":-0.3606416881084442,"139":0.47391289472579956,"140":-0.8755005598068237,"141":-0.013225873000919819,"142":-0.09145241975784302,"143":-0.08137312531471252,"144":0.12494910508394241,"145":0.08206673711538315,"146":0.1796109527349472,"147":-0.16371352970600128,"148":-0.12803798913955688,"149":-0.050693873316049576,"150":0.12051419168710709,"151":-0.1848156750202179,"152":-0.015413802117109299,"153":-0.24120306968688965,"154":-0.04225249961018562,"155":-0.9942688941955566,"156":0.4325099587440491,"157":-0.05979415401816368,"158":0.739246666431427,"159":-0.0536532886326313,"160":-0.06971221417188644,"161":0.12153381109237671,"162":-0.06722752004861832,"163":-0.1569433957338333,"164":0.09539975970983505,"165":0.06329607963562012,"166":-0.08238189667463303,"167":-0.1357651948928833,"168":0.1421412229537964,"169":-0.018176686018705368,"170":-0.3308313488960266,"171":0.6592794060707092,"172":-0.1097746342420578,"173":-0.27160176634788513,"174":-0.6850943565368652,"175":0.6304378509521484,"176":0.18255624175071716,"177":-0.16684973239898682,"178":-0.06267455220222473,"179":-0.3998998999595642,"180":-0.045557018369436264,"181":-1.1920113563537598,"182":0.6232391595840454,"183":-0.2246786504983902,"184":0.18066954612731934,"185":0.15913273394107819,"186":-0.41000494360923767,"187":-0.119453564286232,"188":0.01087113469839096,"189":-0.19702140986919403,"190":-0.0523444265127182,"191":-0.05754580348730087,"192":-0.0587945282459259,"193":0.014260699041187763,"194":-0.030198251828551292,"195":-0.11462727934122086,"196":0.08598237484693527,"197":1.3438154458999634,"198":0.5497609376907349,"199":-0.9298920035362244,"200":-0.39212432503700256,"201":-0.2936364710330963,"202":-0.13637539744377136,"203":-0.044792503118515015,"204":-0.17097145318984985,"205":-0.032789986580610275,"206":-0.07870181649923325,"207":0.010153132490813732,"208":-0.11335191875696182,"209":0.056653644889593124,"210":-0.10986486822366714,"211":-0.04189927875995636,"212":-0.10739250481128693,"213":-0.12134227901697159,"214":0.029859809204936028,"215":0.09925360977649689,"216":-0.08449337631464005,"217":-0.044164009392261505,"218":-0.04607447236776352,"219":-0.057606495916843414,"220":0.0034905937500298023,"221":-0.6071186065673828,"222":-1.14564049243927,"223":-0.26123863458633423,"224":0.21313004195690155,"225":1.2479463815689087,"226":0.09867127984762192,"227":-0.14969901740550995,"228":0.3035830855369568,"229":0.30820125341415405,"230":0.664121150970459,"231":-0.9518518447875977,"232":-0.27810242772102356,"233":-0.5592740774154663,"234":1.1647249460220337,"235":-1.0021430253982544,"236":-0.16295869648456573,"237":-0.2944161295890808,"238":-0.25927308201789856,"239":0.30532941222190857,"240":-0.07296334207057953,"241":0.025074517354369164,"242":-0.19923411309719086,"243":-0.09303012490272522,"244":0.16608847677707672,"245":0.027550900354981422,"246":-0.10667651891708374,"247":-0.11735992878675461,"248":-0.1941610872745514,"249":-0.44707146286964417,"250":0.26721107959747314,"251":-0.0496782623231411,"252":0.5357087850570679,"253":-0.7634085416793823,"254":0.05429743230342865,"255":0.13251759111881256,"256":0.03211391717195511,"257":0.024399176239967346,"258":-0.0875726044178009,"259":-0.11601915210485458,"260":-0.11146415024995804,"261":0.18738679587841034,"262":-0.18105532228946686,"263":-0.05060233175754547,"264":0.11723891645669937,"265":0.1329089105129242,"266":-0.3292634189128876,"267":-0.5933941006660461,"268":-0.34439384937286377,"269":0.3538595139980316,"270":0.267904669046402,"271":0.19735030829906464,"272":0.08492507040500641,"273":0.003109976416453719,"274":0.5140412449836731,"275":1.2311432361602783,"276":-0.18357722461223602,"277":-1.0558966398239136,"278":-0.7488018870353699,"279":0.02284136600792408,"280":-0.03901394084095955,"281":-0.13631770014762878,"282":-0.049780312925577164,"283":-0.04290303215384483,"284":0.09463046491146088,"285":-0.0013446495868265629,"286":0.0319654643535614,"287":-0.36371394991874695,"288":0.2820594608783722,"289":0.22504575550556183,"290":-0.06757109612226486,"291":-0.7163141369819641,"292":-0.20760150253772736,"293":0.3698846697807312,"294":1.225266933441162,"295":0.32990363240242004,"296":-0.5058386325836182,"297":-0.9750921726226807,"298":-0.4503338634967804,"299":-0.05928480997681618,"300":0.07378647476434708,"301":0.16551275551319122,"302":0.015368022955954075,"303":0.02246536873281002,